0.00443299 0.00453608 0.00948454 0.0056701 0.0056701 0.00824742 0.00783505 0.0028866 0.00360825 0.00773196 0.00175258 0.00865979 0.00821987 0.00437267 0.00247423 0.00804124 0.00876289 0.000412371 0.0101031 0.00185567 0.0102062 0.00876289 0.00721649 0.00701031 0.00556701 0.00793814 0.00360825 0.0028866 0.00257732 0.01 0.00319588 0.00113402 0.000618557 0.00370761 0.00652804 0.00341446 0.00529789 0.00169255 0.00395254 0.00350771 0.00753279 0.0101275 0.0107567 0.00834676 0.00211238 0.00295855 0.0072735 0.000795705 0.00812512 0.000552916 0.00980553 0.000921504 0.00536082 0.00412371 0.00381443 0.00618557 0.00742268 0.00216495 0.00587629 0.00999795 0.00556631 0.000930918 0.0077789 0.00786461 0.00578233 -9.65055e-05 0.0043283 0.00780596 0.00487445 0.00282049 0.00682194 0.00481966 0.0029665 0.00680724 -0.00106609 0.0062068 0.00585201 0.00924575 0.0017718 0.00168913 0.0101442 0.00247048 0.00639175 0.00917526 0.00608247 0.00103093 0.00857088 0.00432727 0.00579396 0.00784356 0.000450323 0.000430813 0.00725907 0.000615046 -8.33982e-05 -0.00156623 0.00387043 -0.00639826 -0.00339653 -0.000621599 0.00174129 0.0106036 0.0116906 0.00621801 0.00962433 0.00655845 0.0023769 0.00427353 0.00179219 0.00372835 0.00789846 0.00505155 0.000721649 0.000412371 0.00613219 0.00764051 0.00905721 0.00555235 -0.000896964 0.00348462 0.004101 -0.00320193 -0.00246704 -0.00549245 -0.0101355 -0.00747543 -0.00251904 -0.0089076 -0.0187999 -0.012403 -0.00437536 0.00469357 0.00705621 0.0189184 0.0201366 0.0108479 0.00106549 0.00665002 0.00476877 0.0088429 0.00113402 0.00371134 0.00671221 0.00603983 0.010499 0.00607165 0.0115012 0.0112735 0.00182185 -0.00418985 -0.0131006 -0.0198985 -0.0239307 -0.0228383 -0.0230673 -0.025022 -0.0331669 -0.0169849 -0.00077925 0.0116028 0.0116571 0.0148909 0.0139529 0.0155084 0.00672064 0.00471267 0.00426709 0.00388342 0.00845361 0.0102062 0.00925679 0.00298962 0.0043297 0.00809863 0.0164227 0.0166548 0.0120884 -0.00428017 -0.0109044 -0.0153557 -0.0299371 -0.035913 -0.0312833 -0.025468 -0.0134853 -0.00518088 -0.00240921 0.00387799 0.0189407 0.00811053 -0.00369861 0.00722705 0.0033769 0.00746885 0.00633648 0.00242206 0.00989691 0.00773682 -9.95903e-05 -0.000283826 0.0109773 0.0156037 0.0171437 0.0189634 0.00277716 -0.00671142 -0.0147906 -0.0285365 -0.0351565 -0.0448166 -0.0311189 -0.0337278 -0.0157183 0.00737608 -0.00214324 0.00638925 0.00775074 0.0120918 -0.015158 0.00453214 0.00498555 0.000920442 0.00778816 0.00579381 0.00506555 0.00473184 0.00384671 0.0044097 0.0131665 0.0124237 0.00367888 0.00200561 -0.00387076 -0.00503957 -0.0240433 -0.0249415 -0.0226074 -0.026659 -0.0234897 -0.019649 -0.00834993 0.00134002 0.00402842 0.00424032 0.00887245 0.017945 -0.00692802 -0.00691674 -0.00468592 -0.000278708 0.00249389 0.00539073 0.00813815 0.00346327 0.00737402 0.00253355 0.0109775 0.0159414 0.00184758 0.00144601 0.00480837 -0.00559147 -0.00503991 -0.0117578 -0.00544818 0.00121352 -0.0130561 -0.0133721 0.00683723 0.00348872 0.00335086 0.00478115 0.00023483 -0.00778904 0.00299397 -0.00525014 -0.000665133 0.00653254 0.00036577 0.00311126 0.00968354 0.00380827 0.00370629 0.00935639 0.0157561 0.0112106 -0.00505581 -0.00325601 -0.00934165 -0.0203802 -0.00608702 0.000953778 -0.00140257 -0.0161556 -0.0178401 -0.00712432 0.0197338 0.0253627 0.0161814 0.0104479 0.000407634 -0.00256776 0.00279552 -0.00446936 0.00542748 0.00295092 0.00306659 0.00610547 0.000205414 0.00390443 0.00614145 0.00208476 0.0184746 0.0131793 -0.00469082 -0.0170412 -0.0180361 -0.0219215 -0.0263914 -0.00602693 -0.0126853 -0.0269807 -0.0132881 0.0190867 0.0386851 0.0350902 0.0290706 0.0160054 0.00137429 0.00618215 -0.00388557 0.00570461 0.00812388 0.00997904 0.00939352 0.00382381 0.00979381 0.00535892 0.00344013 0.000345877 0.012561 0.000840975 0.00578846 -0.00756169 -0.0201986 -0.027809 -0.0216531 -0.0184467 -0.014178 -0.013538 0.0219091 0.0297177 0.039592 0.0220809 0.0123553 -0.00493147 -0.0162071 -0.00300316 0.00204749 0.00276766 0.00185768 0.00940038 0.0053921 0.00330389 0.0085567 0.0031661 0.000325721 0.00896876 0.0116495 0.00569363 -0.00526341 -0.0100042 -0.0162825 -0.0252985 -0.0204342 -0.0126552 -0.00123121 0.00366606 0.0191689 0.0343435 0.0293928 0.0172002 -0.00421141 -0.0115325 -0.0101034 -0.00626419 -0.00535483 -0.0042493 0.000230419 0.00258315 0.0077254 0.00772472 0.00381443 0.000222379 0.0104732 0.00572371 0.00668417 0.000902217 -0.00516415 -0.00656008 -0.00332293 -0.00696114 -0.00499271 -0.00441224 -0.0016444 0.0224009 0.0331919 0.0243312 0.0313984 -0.00517136 -0.0196231 -0.0191212 -0.00978381 0.000785164 -0.000174161 -0.00537215 -0.0023609 0.00856851 0.00229767 0.00360826 0 0.00364391 0.00918196 0.00409184 -0.000865955 -0.0046419 -0.00673924 -0.00612984 -0.00514373 -0.00750598 -0.00228431 0.00036628 -0.000420976 0.0235561 0.0206454 0.0125008 0.0108214 -0.0135336 -0.0154994 -0.00202292 -0.00210832 0.00541031 0.0027611 -0.00190995 0.00403695 0.00538369 0.00145258 0.00890085 0.00649485 0.0071344 0.00923219 -0.000207957 0.00208544 -0.00228968 -0.00172143 -0.0123899 -0.00938622 -0.00748624 -0.0182576 -0.00764328 0.00302545 0.0211015 0.00612066 0.0161643 -0.000951539 -0.00188428 -0.00814832 -0.00255653 -0.0047771 0.000517936 0.00642243 0.00463561 0.00365521 0.00744849 0.000973238 0.00912158 0.00525773 0.00639779 0.00709535 0.00530929 -0.000316625 0.000415327 -0.00533435 -0.0176899 -0.0166464 -0.0178438 -0.0256707 -0.0163894 0.0115475 0.00189842 0.0199012 0.0225578 0.00946896 -0.00346213 0.00326059 -0.00443321 -0.00216101 -0.00368265 -0.00522939 -0.00357092 -0.00381481 0.000681165 0.00639942 0.00232384 0.000515464 0.00123711 0.00571664 0.00143672 0.00255206 -0.00726505 -0.0121464 -0.0118147 -0.0161138 -0.025419 -0.0131438 0.00424825 0.00984378 0.00611867 0.0173407 0.00794029 0.00519815 -0.0137437 0.000653859 0.00363935 -0.00242975 -0.00812918 -0.00475903 0.000485931 -0.00392444 0.00683802 0.00997297 0.00920356 0.00917526 0.00265374 0.00677624 0.00535508 0.00301662 -0.00455537 -0.00227037 -0.00256034 -0.0137039 -0.0203771 -0.014243 -0.00804705 0.00430889 0.00654576 -0.000577103 -0.00473573 -0.007397 -0.00927923 -0.00200489 0.00159866 0.00495122 -0.00387974 0.0054022 -0.00397779 0.00632921 0.00187859 0.0059996 0.00422551 0.000309278 0.00885377 0.00991762 0.00480313 0.00849101 -0.00218135 0.00284676 -0.0153673 -0.0178483 -0.0399812 -0.0187639 -0.00501176 0.00408456 -0.0047159 -0.00640301 -0.010912 -0.0115546 -0.0142092 0.000723654 0.00892921 0.0059691 0.000210633 -0.0013525 0.00095451 0.00430586 0.0038031 0.00583608 0.00989691 0.00505155 0.00886598 9.48416e-05 0.0015023 0.00495695 0.00145141 0.00258558 -0.0135686 -0.0145316 -0.0162492 0.00418332 0.00165227 0.00533142 -0.0108942 -0.019907 -0.0109397 -0.00565808 -0.00807003 0.00264446 0.00606072 0.00723267 0.0115485 -0.000211343 -0.00413067 -0.00012825 0.00498189 0.00327184 0.000927835 0.00587629 0.0071134 0.00767328 0.00604495 0.0111991 0.00391088 0.00369969 -0.0202529 0.00483289 0.0149737 0.014212 0.0141228 -0.00342497 -0.00663994 -0.0101441 -0.0022199 0.000512283 0.00984582 0.0118506 0.0121048 0.00432534 0.00679739 0.000944555 -0.00409244 7.58891e-05 0.00613234 0.00847011 0.00845361 0.000824742 0.00525773 0.00733933 0.00890966 0.0106383 0.00675102 0.00448514 -0.00307373 0.0113957 0.0123208 0.021781 -0.00407274 -0.00532523 0.00465803 -0.00890332 -0.00736722 0.00657924 0.0102476 0.000850131 0.00598461 0.000757779 -0.00172373 0.000319395 0.00686054 0.000889227 0.00536942 0.00940195 0.00381443 0.00721649 0.00175258 0.00796604 0.00677588 0.00721209 0.00620388 -2.48037e-05 0.00534876 0.0230193 0.0253218 0.000961037 0.00386871 -0.00339676 -0.0067695 -0.0154299 -0.00267839 0.00354407 0.00728731 0.00552344 -0.00290097 0.00666849 0.0043047 0.00428113 0.00163742 0.00571155 0.00270543 0.0042185 0.00185567 0.00618557 0.00876289 0.0102062 0.00254081 -0.00337828 -0.00123682 -0.00111506 -0.00698263 0.0118545 0.0221239 -0.00716682 -0.00873659 0.00302442 -0.00479444 -0.0033655 -0.00462528 0.000299681 0.000291612 0.00299333 0.00978297 0.00868776 0.00695929 0.00113412 0.00530176 0.00656935 0.00937407 0.00885716 0.00773196 0.00618557 0.00835052 0.00175258 0.00443365 0.0013518 0.00298721 0.00687438 0.00812849 -0.00133743 -0.00420013 0.00422696 -0.00160667 -0.00290153 -0.0100044 -0.0025141 0.00540074 0.00461428 0.006342 0.000911513 0.008606 0.00286042 0.00801297 0.00364013 0.00969087 0.00432759 0.00907216 0.00690722 0.000721649 0.00824742 0.000103093 0.00762887 0.00206186 0.00762887 0.00720809 0.00420505 0.00299627 0.0038819 0.00162502 0.00313928 0.00451917 0.00559479 0.00448297 0.000414291 0.0025406 -0.000261641 0.0043657 0.007665 0.00121604 0.000482051 0.00386775 0.00697263 0.00297279 0.0043299 0 0.000103093 0.00649485 0.00628866 0.00195876 0.00134021 0.000721649 0.00659794 0.00257732 0.00216495 0.00608247 0.0102062 0.00216495 0.00556701 0.00587629 0.00132796 0.00863298 0.00783505 0.00381443 0.00742268 0.00762887 0.0101031 0.0057732 0.00350515 0.0085567 0.00412371 0.00886598 0.00814433 0.00463918 0.00443299 0.00391753 0.00494845 0.00608247 0.00340206 0.00412371 0.00494845 0.00690933 0.000323133 0.000805531 0.00215047 0.00192699 0.00669609 -0.000604153 0.0044219 0.00358509 0.00722939 0.00311462 0.00792615 0.00368678 0.0029003 0.00441567 0.00617522 0.00839147 0.00216212 0.00882763 0.00391753 0.00195876 0.00134021 0.00618557 0.00587629 0.00360825 0.00896907 0.00319322 0.000102178 0.00654113 0.0140363 0.00565785 0.00795738 0.0103528 0.0101261 0.00301026 0.00287388 0.00398074 0.0099695 0.012809 0.00967229 0.00400157 0.00225101 -0.000141833 0.0064027 0.00227205 0.00285517 0.00427442 0.00453781 0.00414491 0.00505155 0.00958763 0.00123711 0.00154639 0.00736175 0.0036354 0.00952438 0.00643949 0.00954922 0.0127787 0.00795239 0.000450294 0.00157425 0.00348638 -0.0025378 -0.000643071 0.00608194 -0.00964988 -0.00641209 0.00212128 0.00169868 0.00387853 0.00438392 0.0065433 0.000253512 0.000483489 0.00667094 0.00210426 0.00816308 0.00515464 0.00134021 0.00494845 0.00132036 0.00187375 0.0138902 0.00674406 0.0116812 0.0139231 0.00225683 0.00166861 -0.00099384 0.00491387 0.00577489 -0.0121071 -0.0164819 -0.003552 -0.00516994 -0.0181286 -0.000354638 -0.00613879 0.00425442 0.00963353 -0.000571887 0.00482551 0.00124772 0.00850828 0.00406985 0.00779262 0.00329897 0.00804124 0.00222723 0.00733275 0.012741 0.00929268 0.00347145 0.00563053 -0.00439687 -0.0158992 -0.0221481 -0.00871377 -0.0138643 -0.0300366 -0.0103154 0.00710439 0.0261454 0.00297918 -0.0124353 -0.0155189 -0.0179835 -0.000589633 0.0034995 0.000481651 0.000601609 0.00119323 0.00868315 0.00601977 0.00701031 0 0.00258088 0.00932096 0.00978627 0.00951475 0.00460195 -0.0085675 -0.0158958 0.000681093 -0.00230163 -0.0166411 -0.00327626 -0.0137653 -0.00843061 0.0285606 0.0186923 0.00341072 -0.0218854 -0.0130396 -0.0100214 0.000978828 -0.00467836 -0.00135276 -0.006532 0.00200196 0.00687943 0.00394101 0.00360825 0.00599509 0.00535791 0.0135837 0.0138146 0.0233316 0.0131738 -0.00460392 -0.0137298 0.0164689 -0.00931775 -0.0252186 -0.0126654 -0.0235048 -0.0320536 -0.026232 -0.0271295 -0.00486145 0.000246386 0.00731535 0.0264356 0.0183625 0.00825812 -0.00747304 -0.0103103 0.00341041 0.004781 0.0055146 0.00174565 0.00472907 0.0092727 0.0114915 0.034123 0.0254576 0.0116281 0.0120827 0.0220637 0.0166799 0.00357708 -0.0179679 -0.023381 -0.0237773 -0.00441318 0.00538897 0.00174622 -0.0194813 -0.00877832 -0.00842894 0.00165157 -0.0117011 0.00705632 0.0142739 -0.0211675 -0.00783181 0.00680992 0.000835274 0.00227367 0.0076124 0.00813303 0.0152114 0.0317865 0.0363712 0.0459363 0.0275513 0.0480241 0.0294569 0.0276343 0.0290135 0.0476434 0.0290207 0.0309778 0.0188359 -0.00146099 0.00350175 -0.00160758 -0.019899 -0.0212224 -0.0196938 0.00873595 0.0168743 -0.00468671 -0.00606661 0.00303274 0.00466526 0.000315817 0.000616353 0.00488746 0.00329956 0.0222346 0.0421633 0.0370093 0.03333 0.0518797 0.0474736 0.043001 0.045705 0.0262586 0.00684932 -0.00360703 0.0289151 0.00944254 0.0336244 0.0161651 0.00956182 0.00101295 -0.0247364 -0.0146801 0.0105207 0.00074401 0.002979 0.0090495 0.00325528 0.00402132 0.00847941 0.00323111 0.0013323 0.0149722 0.0109351 0.000376385 -0.00465927 0.0200606 0.0206085 0.00399164 0.00450303 -0.0392903 -0.0674506 -0.029875 -0.0177778 -0.0192576 -0.00378766 0.00858787 0.0109175 -0.00878459 -0.00269294 -0.0166248 -0.01256 -0.0090346 0.00370099 0.000426475 0.00238093 0.00525773 0.00588491 0.00189915 -0.00370649 -0.0124956 -0.0276091 -0.0425247 -0.0384392 -0.00673766 -0.0267266 -0.0638557 -0.0987266 -0.0948512 -0.059063 -0.010004 -0.00220981 -0.0118955 -0.0168176 -0.00478205 -0.0266661 -0.0263003 -0.00347097 -0.012735 -0.0344481 -0.0148685 0.000361586 0.00354701 0.000237382 0.00587629 0.000663908 0.00886516 -0.0113613 -0.0241547 -0.0315121 -0.0546395 -0.0784281 -0.075227 -0.0771515 -0.0846508 -0.0700198 -0.0423941 -0.0012129 0.0246642 -0.00927114 -0.00280295 -0.0219115 -0.0127356 -0.0497373 -0.0269148 -0.0203349 -0.00815103 -0.0109518 0.0170285 0.00576564 0.0104342 0.00405588 0.00917526 0.0062907 0.0048946 -0.0158593 -0.036066 -0.0389166 -0.0671929 -0.0889616 -0.0949053 -0.0923028 -0.0412044 -0.0149525 0.0199395 0.042205 0.042585 0.0128953 0.00676194 0.0274294 0.0111363 -0.00163156 0.0159784 0.0103562 0.00448241 0.0247746 0.0211488 0.00171326 0.0123499 0.00166308 0.00876289 0.000953751 0.00401278 -0.00942347 -0.0333342 -0.0419823 -0.0453449 -0.0754501 -0.080095 -0.0369943 -0.00411855 0.0162867 0.0487875 0.0604747 0.0548671 0.0179261 0.0122949 0.0505232 0.0450415 0.0257005 0.0253614 0.0338326 0.0364863 0.0287089 0.0122251 -0.00465487 -0.00178762 0.00933838 0.00474227 0.00937467 0.00185171 0.000162257 -0.0207338 -0.0466452 -0.0425672 -0.0397198 -0.012787 0.0360156 0.0349511 0.0273909 0.0476972 0.0519251 0.0328087 0.0123796 0.0241821 0.0201439 0.025174 0.0255474 0.00555723 0.0252416 0.0252969 0.0182422 0.00548562 -0.00517644 -0.00191307 0.00398244 0.00134021 0.00618886 0.00721092 0.00440219 0.000702574 -0.00751777 -0.0281076 -0.0246355 -0.00330594 0.0299977 0.0199226 0.0109179 -0.0272685 0.00869024 0.0169567 0.0108404 0.00698101 0.00772421 0.0108128 0.00836766 -0.000510474 0.00946817 0.0168242 0.0167556 0.0108809 0.000404633 0.00786887 0.000993559 0.00175258 0.00886598 0.00706847 0.00670695 0.0105191 -0.000425019 -0.00504862 0.0168374 0.00699638 -0.00903991 -0.00947473 0.00230025 -0.0296639 -0.00914071 -0.00638265 0.00175304 0.00961465 0.0064533 -0.0121344 0.00433842 -0.0149749 -0.00501197 0.00458162 0.0148458 0.00604632 0.0121277 0.00986868 0.00195376 0.00278351 0.00261032 0.00522044 0.0123323 0.0311176 0.0151818 -0.0026059 0.00541783 0.0066965 0.0114265 0.00997441 0.000908727 -0.0249504 -0.00957811 0.0139262 -0.00252252 0.00829399 -0.0284381 -0.0408053 -0.00830654 -0.0171156 -0.00901825 0.0010886 0.00715617 -0.00224782 0.00679075 0.00607008 0.00657112 0.00649485 0.000396325 0.00268507 0.00926182 0.0237111 0.00932523 -0.00868714 0.0186447 0.00887279 -0.00150214 -0.00981792 -0.0105065 -0.0180777 -0.0127208 0.00593109 -0.0066411 -0.0195979 -0.0387364 -0.0429547 0.0015381 0.00108419 -0.00895225 0.00327975 0.0118901 0.00259541 -0.000397383 0.00731665 0.00309278 0.00329897 0.0057732 0.00903307 0.00693021 0.00607653 0.00691342 0.00508494 -0.00680837 -0.0102322 -0.0291617 0.0014795 -0.00307506 0.00745936 0.00333761 0.0100747 -0.00832655 -0.00837878 -0.0127437 0.00143024 0.0196296 -0.00392306 -0.00676998 -0.00210967 0.00569241 0.00902883 0.00719338 0.00499803 0.00195876 0.00731959 0.00979381 0.00270246 -0.00646946 -0.00278604 0.0036203 -0.000437895 -0.0110074 -0.0130968 -0.009752 0.00928729 0.0196625 -0.00779545 -0.00530042 0.00292464 0.0112547 0.0199387 0.000732218 0.00331484 0.0255551 -0.00760848 0.00383411 0.00517513 0.00602828 0.00520796 0.009332 0.00202935 0.00556701 0.00319588 0.00628866 0.00380972 -0.00438097 -0.00318881 0.0052009 -0.000132997 -0.0051108 -0.0198083 0.0139219 0.0376012 0.0293479 -0.0137098 -0.00822238 -0.00342455 -0.00887466 0.0111575 0.0111793 0.0140199 0.0185368 -0.0107564 -0.00382476 0.00738301 -0.00158025 0.00672838 0.00755231 -1.48752e-05 0.00134021 0.00329897 0.00360825 0.00726716 0.00326814 0.0150979 0.0154274 -0.00108242 -0.0195726 -0.00364676 0.00881853 0.014749 -0.00324562 -0.0339113 -0.0296155 -0.0229894 0.0118218 0.0142677 0.0325985 0.0047717 -0.00719461 0.00151084 -0.00797321 -0.00472144 0.00220839 0.00571322 0.00395611 0.00121678 0.00701031 0.00721649 0.00298969 0.00360825 0.00797093 0.00478135 -0.0126437 -0.00574106 -0.0075538 0.0133546 0.0135826 0.0165839 0.00477323 0.0152366 -0.0200362 -0.0212778 0.0247034 0.0236992 0.00339909 0.00352884 -0.0010241 0.00221323 -0.0067004 0.000871618 0.00247844 0.00552873 0.00417412 0.0089668 0.00608247 0.00742268 0.000412371 0.00731959 0.00670098 -0.00129632 -0.0174417 -0.0170996 0.00383559 0.00602143 0.0023726 0.013422 0.00664551 -0.00711224 -0.00854465 -0.0173839 0.000880156 -0.0162074 -0.0212185 -0.00221347 0.00298198 0.00353717 -0.00620408 0.00557888 0.00246335 0.000823517 0.00298969 0.00381443 0.00360825 0.00762887 0.00865979 0.00886598 0.00721649 0.000206186 0.00443863 0.00146556 0.00634041 0.0105213 0.0107203 0.00822836 -0.00147186 0.00155513 0.00660183 0.0020131 -0.00302633 0.00334699 0.00391291 0.0119327 0.00868348 0.00462709 -0.00149732 -0.00523779 0.00120995 0.00546392 0.00618557 0.00494845 0.00938144 0.00185567 0.00536082 0.00123711 0.00845361 0.000515464 0.00731959 0.00814433 0.00773196 0.00185567 0.00865979 0.00381443 0.00164948 0.00763469 0.00671379 0.00175258 0.00154639 0.0028866 0.0085567 0.00731959 0.00969072 0.00680412 0.00742268 0.00381443 0.00927835 0.0043299 0.00876289 0.00989691 0.00350515 0.00587629 0.000515464 0.000927835 0.0071134 0.00319588 0.00835108 0.00517681 0.00880001 0.00795008 0.00442141 0.00853099 0.00394853 0.00256241 0.0079035 0.00959374 0.00696168 0.00973241 0.00282049 0.00114629 0.00365753 0.00560574 0.000507206 0.00951508 0.00877766 0.000721649 0.00546392 0.00268041 0.00649485 0.00134021 0.00113402 0.00958763 0.00422934 0.0053617 0.00838979 0.00045822 0.00180956 0.00856238 0.00543547 0.00849784 0.00214119 0.00243121 0.00405465 0.00488339 0.000550536 0.000979349 0.00370482 2.76493e-05 0.00209956 0.00967126 0.00874333 0.00471423 0.00460734 0.0078313 0.00277227 0.0057732 0.00505155 0.00463918 0.00484536 0.00195713 0.00722328 0.0047816 0.00975085 0.000417471 -0.000151324 0.00453609 0.00246643 -0.00110586 0.00626821 0.00243183 0.00211386 0.000415922 0.0020187 0.0043405 0.0055819 0.00220745 0.00286825 0.00716282 -0.00129639 0.00620559 0.00369107 0.00857897 0.00245503 0.0048053 0.00608247 0.00927835 0.00556701 0.004842 0.00185405 0.0071884 0.00826062 0.00745325 0.00219419 0.00713023 -0.00177149 0.00270316 0.00211763 -0.00279532 0.00526125 0.0020099 0.0066135 0.00412422 0.00185125 0.00813712 0.0108611 0.0072144 0.00639095 0.00151801 0.00195298 0.00724074 0.00713756 0.00946484 0.00279422 0.00793814 0.00329897 0.00114177 0.00709148 0.00271255 -0.000547389 0.0022717 0.00685944 0.00699303 0.00360282 -0.00228983 -0.00458121 -0.00479103 0.000565639 0.00378505 0.00231321 0.00729443 0.00360282 0.00155398 0.0114633 0.0124945 0.00527574 0.00941076 0.00831215 0.00550207 0.00192044 0.00448942 0.00640759 0.00989691 0.00206186 0.00848159 0.00830104 0.00454842 0.00385795 0.000586283 0.00643391 0.00525451 -0.00418618 0.00149449 0.0054708 0.00103664 0.00402413 -0.00344007 -0.000519139 -0.00183805 0.00104024 0.00558938 -0.00034356 -0.00266726 0.0105214 0.0120288 0.0131569 0.00882636 0.00548475 0.0108236 0.00578161 0.00546392 0.00139985 0.00331237 0.00946871 0.00392191 0.00417514 -0.000276634 0.0018687 -0.00161704 0.00342958 -0.000859192 0.00552561 0.000601566 -0.000166015 -0.00520282 -0.000710191 -0.00151629 -0.00146168 -0.00330094 0.00221762 -0.000961959 -0.00331562 0.0110767 0.0140663 0.0103946 0.00539873 0.00243466 0.00910055 0.00337064 0.00681462 0.00657005 0.00369822 -0.00334255 -0.00471784 0.00276135 -0.00476407 0.000911367 -0.00387682 -0.00149351 -0.000721787 0.00269011 0.00115812 0.00203575 -0.00793832 -0.00176903 -0.00477327 -0.00590493 -0.00175812 -0.000385532 -0.00303454 0.00265624 0.00631205 0.0114451 0.0118511 0.00515916 0.00501035 0.00329712 0.00558669 0.00863243 0.000295369 -0.00238058 0.000357776 0.00231827 -0.00428605 0.0038187 -0.00117627 -0.00104297 0.0082505 -0.00300478 0.00123244 -0.00277559 -0.00829015 -0.0121613 -0.0167803 -0.0149067 -0.00136766 -4.14363e-05 -0.00874865 -0.00143849 0.00015403 0.00525894 0.0028165 0.00519363 0.000911672 0.000513314 0.00586824 0.00603394 0.00451826 0.00405476 -0.00191168 0.00316925 0.000757579 0.0050604 0.00675585 0.010709 0.0125244 0.00891326 0.00126061 -0.0081036 -0.00252175 -0.0111963 -0.00974788 -0.00931469 -0.00612403 -0.00442015 -0.00646379 0.00016626 0.00686235 0.00580549 0.0078545 0.0100822 0.00571477 0.010206 0.00499051 0.00582913 0.000589728 0.00245301 -0.00654258 0.00360827 0.00269772 0.00933103 0.00504609 0.0135805 0.00946367 -0.00174629 -0.0043127 -0.0111156 -0.0122884 -0.00806075 -0.012461 -0.0145091 -0.00865149 -0.00399474 -0.00808644 0.00136129 0.00367688 0.00348236 0.0051626 0.00481178 0.00465137 0.00804124 1.44888e-05 0.00693086 -0.000841607 -0.00277869 -0.00629186 0.00477927 0.00744176 0.0106072 0.00790013 0.011317 0.00331565 -0.00281599 -0.00782678 -0.00397997 -0.0132228 -0.00747225 -0.0130142 -0.0051681 -0.00324518 -0.00593695 -0.0037844 -0.00161793 0.0084936 0.00825633 0.00899939 0.00507485 0.00651331 0.00546392 0.00177927 0.00334372 0.00659203 0.00322465 -0.00059826 0.00556095 0.00201863 0.0042268 0.0135928 -0.000245108 0.0048095 -0.00595549 -0.0109717 -0.00624576 -0.0137618 -0.0202556 -0.0113989 -0.00633634 -0.00849325 -0.00658549 0.004591 -0.00250992 0.00624698 0.00964358 0.0114674 0.00862392 0.00885338 0.0071134 0.00670703 0.00391942 0.00641517 0.00547734 -0.00127536 0.00512941 0.0122801 0.00594203 0.0141128 0.00356138 0.00599155 0.000525254 -0.00967165 -0.00864807 -0.0170421 -0.0178215 -0.0132095 -0.00572781 0.000474155 0.00647069 0.00331913 0.00229012 0.00587307 0.0130982 0.00787135 0.00113739 0.00267987 0.000824742 0.00998327 0.00184673 0.00839236 0.000984249 0.0023053 1.71864e-05 0.0136215 0.00805161 0.00897438 0.00310064 0.00259763 -0.00777345 -0.00901567 -0.0156002 -0.0171059 -0.0168934 -0.0190362 -0.0127753 -0.00416078 -0.000547976 0.00257479 -0.00602042 0.00766707 0.0102459 0.00833374 0.00668216 0.000912543 0.00835052 0.0077202 0.00446644 0.00190239 0.00493429 0.00864374 0.00111052 0.00679286 0.0020095 0.00749188 0.00475387 0.00032915 -0.00292165 -0.00314988 -0.00171358 -0.00800519 -0.0133333 -0.015187 -0.0164478 -0.00517809 0.00449483 -0.00574104 -0.00760584 0.00576873 0.00638411 -8.6973e-05 0.00563141 0.00420343 0.00659794 0.00350212 0.00920918 0.00161918 0.00649821 0.0106635 0.00666448 0.00869984 0.00321612 0.00187925 0.00774255 -0.00108284 -0.00264009 -0.011701 -0.00857346 -0.00341096 -0.00980305 -0.0116516 -0.00938653 -0.0012208 -0.00368114 0.00413346 -0.0023912 0.00883502 0.00226983 0.00689257 0.00803891 0.00795726 0.00505155 0.00206186 0.0066085 0.00449589 0.0083677 0.00419513 0.00387068 -0.00140997 -0.00156993 0.00078002 0.00262425 -0.00385469 -0.00271327 -0.00608598 -0.00824514 -0.00975041 -0.00383789 -0.00208344 -0.00539627 -0.00611183 0.00301712 -0.00275796 0.00182958 0.00151272 0.00294793 0.00248967 0.000799207 0.0062812 0.00381443 0.00486717 0.00693541 0.00613692 0.00879018 -0.00328702 0.00369481 -0.00211473 -0.00287288 0.00119711 0.00790427 0.00132264 -0.007213 -0.00184424 0.00203816 -0.00230234 -0.000467347 -0.00618822 -0.00349112 -0.00402326 0.00293636 0.00257908 -0.00208738 0.0061187 -1.54669e-05 0.00317704 0.00595838 0.00676596 0.00835052 0.00726745 0.00587944 0.00796223 0.00802083 -0.00680576 7.6701e-05 -0.00219875 -0.00382877 0.00365746 0.00523342 0.00865293 0.00251991 0.0025358 0.00513479 0.00541455 0.00506428 -0.0024459 -0.00225247 -0.00905875 -0.00262207 -0.00643451 0.004984 -0.00190437 -0.000303174 0.003386 0.00044515 0.00958763 0.00247423 0.00927835 0.00593582 0.0102818 0.00626051 -0.00157657 -0.00613284 -0.00640257 0.003464 0.0057409 -0.000441269 0.0076518 0.00045886 -0.00180792 -0.00129404 0.00237649 0.00317832 0.00173531 -0.00416583 -0.00612548 -0.00349001 -0.0031418 0.000266375 -0.00134785 0.00678815 0.00542337 0.00616305 0.00783505 0.00938144 0.00865979 0.00868648 0.0095773 0.00595395 0.00539725 0.00197993 -0.00193441 0.00380184 0.000971812 0.00417413 0.00276633 0.00562175 -0.00229042 0.00759805 0.00224058 -0.000436764 -0.00262411 0.00170409 -0.0043723 -0.00598745 0.00267128 0.0098849 0.00585514 0.00724951 0.00368182 0.00876265 0.00391753 0.00845361 0.000927835 0.00266275 0.00240064 0.000322017 0.00415637 0.00255687 0.00385525 -0.00123017 0.00483745 0.00402419 0.00309788 0.00434815 0.00601789 0.0074797 0.00882791 -0.000915016 0.00457346 0.00431866 0.00594924 0.000464716 0.00670562 0.00282503 0.00442325 -0.00133649 0.00395903 0.0094748 0.00247423 0.00206186 0.00453608 0.00299252 0.0073614 0.010429 0.0101442 0.00990185 0.00387231 0.00078846 0.00288649 0.00216145 0.00728251 0.00823572 0.00405683 -6.46125e-05 0.00447668 0.00567429 -0.00608337 -0.000331725 0.000173984 0.00462983 0.00643325 0.00931297 0.00884876 0.00826054 0.00174552 0.00443337 0.00113402 0.00979381 0.00237113 0.00123711 0.00690738 0.0043029 0.00152478 0.00980235 0.00637444 0.00963859 0.00631542 -0.00141686 0.00750734 0.00242573 0.00542925 0.00555851 0.00660007 0.00105978 0.00295705 -0.00566202 -0.000447486 0.00108991 0.00853447 8.08568e-05 0.00618968 0.00817605 0.00319622 0.00453649 0.00453608 0.0043299 0.0028866 0.00268041 0.00680469 0.00992685 0.00685428 0.000394808 0.00902992 0.0088751 0.0056788 0.00262878 -0.000536189 0.00517455 0.00541381 0.00788267 -0.00116087 0.00396076 0.00344425 0.00488003 0.00114882 0.0011553 0.00694134 0.0026027 0.00298043 0.0079368 0.00969072 0.00628866 0.00917526 0.000721649 0.00103093 0.0043299 0.00927835 0.00340206 0.00854571 0.0030602 0.00277038 0.00285473 0.00940693 0.00659925 0.00728634 0.00601825 0.00381104 0.00959351 0.0012655 0.0043892 0.000789936 0.00410445 0.000312546 0.00341007 0.00113773 0.0100583 0.00428717 0.00206186 0.0057732 0.00474227 0.000206186 0.00690722 0.00659794 0.00824742 0.00948454 0.00154639 0.00969072 0.00453608 0.00896907 0.00226804 0.00649485 0.00556701 0.00917526 0.00960713 0.00684681 0.00134021 0.00371134 0.000927835 0.00412371 0.00783505 0.00948454 0.0085567 0.000412371 0.00340206 0.00154639 0.00886598 0.00783505 0.00474227 0.00350515 0.00494845 0.00453608 0.0043299 0.00185567 0.00134021 0.00897164 0.00643691 0.000985097 0.00678376 0.00525092 0.000652704 0.00446855 0.00979073 0.00306742 0.00912041 0.00897207 0.00678702 0.00529554 0.0102511 0.00806794 0.00128868 0.00887042 0.00241655 0.00726108 0.00494845 0.00824742 0.01 0.00309278 0.00835052 0.0057732 0.00226804 0.00618146 0.0097924 0.000683787 0.0024989 0.00409921 0.00891374 0.00228458 0.00815683 0.00548098 0.0071279 0.0039193 0.00997705 0.013487 0.00126172 0.00683574 0.00650544 0.00722726 0.00741961 0.00268704 0.00197238 0.00519782 0.0069898 0.00010799 0.00958763 0.0043299 0.00587629 0.00793814 0.00157444 0.00525226 0.00736682 0.00222005 0.0075419 -0.00157923 -0.000706372 -0.00109795 0.00474755 -0.0016718 -0.00927328 -0.021983 -0.032412 -0.0202976 -0.0305556 -0.0158951 0.0147575 0.0312257 0.0135581 -0.00219344 0.0045219 0.000401025 0.00448278 0.0100179 0.00159453 0.00556701 0.0101031 0.00134021 0.00185362 0.00641455 0.00384087 0.0105949 0.00463237 0.00327313 -0.00348298 -0.0060101 -0.00935681 -0.018693 -0.0195672 -0.0252031 -0.0289817 -0.0363476 -0.00701494 -0.00976593 0.0208594 0.060228 0.0496807 0.00952158 0.00747785 0.00516328 -0.00563524 0.0036612 0.0078686 0.00632324 0.00690722 0.00639175 0.00456852 0.00442694 0.00063932 0.00751715 0.00316067 -0.000907796 -0.00158181 -0.00834831 -0.0221793 -0.0500114 -0.0599981 -0.0524302 -0.024119 -0.00172542 -0.0246885 -0.00758687 0.0442683 0.0769611 0.0355201 -0.00427625 -0.0103598 -0.0112713 -0.00201397 -0.000836504 0.00950175 0.00638901 0.00278351 0.00886598 0.00893671 0.00331965 0.000327152 -0.000336645 0.00168399 -0.00878605 -0.00581969 -0.00765799 -0.0333529 -0.0370655 -0.0504345 -0.0631828 -0.0277279 -0.0710348 -0.0337211 0.0480914 0.0217451 0.0213295 0.00592318 -0.0135111 -0.0238494 -0.0166089 -0.0211372 -0.00314751 0.00713383 0.0055895 0.00247423 0.00608708 0.00604631 0.00608791 0.0057177 -0.000233949 -0.00389206 -0.0130595 -0.0238966 -0.0267288 -0.0361708 -0.0403612 -0.0543019 -0.0602409 -0.0216931 -0.0440407 0.00490706 0.0689194 -0.026371 0.0160893 -0.0186597 -0.0167504 -0.00338169 -0.0114337 -0.0236731 0.00207678 0.00119419 0.00169563 0.006181 0.00591171 0.00261252 0.00336095 0.00353042 0.00275622 0.00713138 -0.00529783 -0.0152618 -0.0221302 -0.0255004 -0.0584432 -0.0782713 -0.0752191 -0.0415513 0.0177781 0.0650806 0.0393627 -0.0414557 -0.0260365 -0.0196852 -0.0166184 -0.0134754 -0.00681454 -0.0057775 0.000941659 0.00546504 0.00699262 0.00559876 0.00684118 0.00723234 0.00343961 0.00757214 0.00110974 0.00333624 -0.0035406 -0.000492005 -0.00559987 -0.0032579 -0.030137 -0.0417362 -0.0604433 -0.0313461 0.0833268 0.114314 0.00963227 -0.0361227 -0.0375474 -0.0292751 -0.0147381 -0.0154349 -0.00687694 -0.00236137 0.00290977 0.00626549 0.00250602 0.00127401 0.00771296 0.00921319 0.00923071 0.000834017 0.00055788 -0.00340867 -0.00812813 0.00413439 0.0017523 0.0197535 -0.0176739 -0.0537595 -0.0683669 0.00284899 0.107825 0.0607737 0.00814826 -0.0211358 -0.040111 -0.0288668 -0.0189003 -0.0126038 -0.00519485 0.00028039 0.00756254 0.00476253 0.00906681 0.0052617 0.00936494 0.00665023 0.00174533 0.00252869 -0.00528354 -0.00776037 -0.00277428 0.00255028 -0.0123792 -0.00195394 -0.0517639 -0.0419322 -0.0270401 0.00854299 0.0850627 0.0296769 -0.00983847 -0.0356582 -0.0296973 -0.00873812 -0.00812945 -0.00579766 0.00129503 -0.00197064 0.00310884 0.00370282 0.000542575 0.00824742 0.00262916 0.00833611 0.00534496 0.00201999 -0.00128971 -0.00639729 -0.00367646 -0.0193844 -0.0259075 -0.0306432 -0.0638224 -0.00149928 -0.0246885 0.00635601 0.0278569 0.0104822 -0.024295 -0.0557978 -0.0249239 -0.00909373 0.00351531 -0.00389638 0.00866946 0.00683844 0.0108035 0.00706281 0.00168861 0.00670103 0.00854842 0.00675896 0.00635241 0.000304191 0.000765978 -0.00432562 -0.00133207 0.00126549 -0.00912314 -0.0210643 -0.0339258 -0.0104364 -0.0429192 0.0231408 0.0165306 0.00435786 -0.039532 -0.0440084 -0.0276983 -0.00615384 0.0105832 0.0117933 0.00967459 0.00941413 0.00368177 0.00211509 0.00999951 0.0043299 0.00718103 0.00184998 0.0119855 0.00560438 -0.000709673 -0.00172956 0.00249681 0.00723987 0.00878105 0.000812863 -0.00574569 0.00142202 -0.0141967 0.0434494 0.0383667 0.0117488 -0.0580558 -0.0469027 -0.00286134 0.00471931 0.00266507 0.00973734 0.00480898 0.00424297 0.00583089 0.00373003 0.00144276 0.0042268 0.00869049 0.00696698 0.00142648 -0.00161081 0.00021423 -0.00542742 0.00254308 0.00966239 0.00160596 -0.0258208 0.0240872 -0.00454574 0.00441067 0.0128516 0.0187565 -0.0118522 -0.0380128 -0.0261571 -0.0275503 -0.0210308 -0.00749686 -0.00736101 0.00259892 0.0030155 0.0019134 0.00714774 0.00894305 0 0.0067686 0.00820416 0.0005681 0.00594058 -0.00201563 -0.00960255 -0.00276326 0.0126599 0.00307972 -0.0341792 0.0097479 -0.0273318 0.029354 -0.00600719 -0.00586362 -0.0127199 -0.0288355 -0.0332266 -0.0227261 -0.0257706 -0.00882784 -0.00880907 -0.00262877 0.00552112 0.00514466 0.00735225 0.000899455 0.00804124 0.00679227 0.00922382 0.000950174 -0.00261317 -0.0026787 -0.00347148 -0.0102069 -0.0102067 -0.0160927 -0.0201601 0.0014393 0.00696955 0.00766057 -0.00992069 -0.0381067 -0.0479591 -0.0335886 -0.0215163 -0.0114887 -0.00544065 0.00634534 0.00535872 0.0108338 0.0151047 0.0112486 0.0109267 0.00219787 0.00453608 0.00340206 0.0024132 0.00552852 0.003643 -0.0135708 -0.0225196 -0.0171538 -0.0263523 -0.0046446 -0.0136546 -0.017365 -0.0258176 0.00659404 -0.0390038 -0.0714651 -0.0484743 -0.0285999 -0.0152536 -0.0156415 0.000333117 0.00497455 0.0101651 0.0167007 0.0149438 0.0115793 0.00957858 0.000298147 0.00546392 0.00607992 0.00346734 0.000496784 0.00208591 -0.0163081 -0.0213552 -0.027137 -0.0228114 -0.00669211 -0.0089442 -0.000177169 -0.00695873 0.0345337 -0.0522963 -0.0712494 -0.0411841 -0.03766 -0.040869 -0.0269133 -0.0141363 -0.00812468 -0.000767446 0.0128636 0.0105301 0.0166426 0.00885251 0.0058409 0.00865979 0.00684838 0.00877694 0.00250644 0.00251206 -0.0166831 -0.029812 -0.0235797 -0.0137674 -0.0392541 -0.0110918 0.0213958 0.0534341 0.00180019 -0.008911 -0.0510829 -0.0396548 -0.0454178 -0.0406507 -0.0271088 -0.0165187 -0.00384144 0.000160681 0.0102559 0.0154298 0.0111812 0.0129534 0.00773196 0.000412371 0.000824742 0.00401303 0.00210769 -0.00317328 -0.0137502 -0.0160649 -0.0310206 -0.0316491 -0.0306261 -0.0296428 0.00458119 0.0379207 0.0108836 -0.0214072 -0.0484724 -0.0511816 -0.054084 -0.0357486 -0.0208384 0.00123427 0.00343341 0.00979407 0.0124321 0.0108871 0.00191831 0.00769563 0.00402062 0.000206186 0.00979381 0.00291857 -0.00125759 0.00346236 0.00476014 -0.00952023 -0.0273916 -0.0158663 -0.0278779 -0.0437621 -0.0471614 -0.0076696 0.0407496 0.00710206 -0.039824 -0.0357215 -0.0275775 -0.0166121 -0.00232499 0.000564636 0.00527897 0.000760251 0.000765392 0.00058214 0.00345114 0.00841823 0.00835052 0.00845361 0.00927835 0.00139877 -0.000916096 0.0112245 0.00515525 -0.00536791 -0.0118252 -0.00998094 -0.00350544 -0.0331453 -0.00569163 0.0327063 0.0454382 0.0145396 -0.0112763 -0.0131445 -0.0199067 -0.00672985 -0.00300158 -0.00206717 0.00101905 0.000881213 -0.00171836 0.00722349 0.0088319 0.00105445 0.00742268 0.00845361 0.0014433 0.00528866 -0.000180289 0.00184684 -0.000310516 -0.0128047 -0.0281427 -0.0349595 -0.0155791 -0.0317479 0.0186083 0.0281391 0.0187754 0.0212046 0.00575424 -0.0146135 -0.00793737 -0.00317819 0.00382294 -0.00300451 -0.00440584 -0.00143209 0.000406062 0.000854375 0.00381875 0.0100332 0.00360825 0.00195876 0.000824742 0.00484536 0.00794992 0.00624046 -0.000594326 0.00410482 -0.00108794 -0.00407145 0.0108587 -0.0285053 -0.0103799 0.0131957 0.0247821 0.0103584 -0.00313612 -0.00785489 -0.000296873 0.000538435 -0.00633293 0.00456146 -0.00049466 0.00474247 0.00721532 0.00421641 0.00281297 0.00292185 0.0102062 0.00917526 0.00391753 0.00113402 0.00639115 0.00413153 0.00804384 0.00418907 0.00854578 0.0012995 0.0047016 0.00292165 0.00445131 0.0058949 -0.00181769 -0.00645367 -0.00439059 0.000698068 -0.000293046 0.00120476 -0.000575719 0.00663095 0.0095473 0.00966397 0.0031846 0.00680203 0.000412371 0.000103093 0.00958763 0.00896907 0.00546392 0.00865979 0.00443299 0.00453608 0.00320268 0.00131795 0.00190769 0.00425587 0.00693682 0.00756131 0.000139219 0.00873061 0.00768582 0.00856039 0.000963181 0.00997925 0.00521582 0.00560426 -0.000191393 0.00502517 0.00810905 0.0034952 0.00664272 0 0.00896907 0.00309278 0.00164948 0.00474227 0.00371134 0.00257732 0.00123711 0.00845361 0.0042268 0.00896907 0.00298969 0.00659794 0.0042268 0.000412371 0.000515464 0.00589015 0.0049788 0.00474227 0.00886598 0.00865979 0.00917526 0.00278351 0.00216495 0.00247423 0.00773196 0.0014433 0.000412371 0.00505155 0.00938144 0.0102062 0.000103093 0.000618557 0.00845361 0.00484536 0.00917526 0.00608247 0.00112671 0.0015525 0.00967432 0.00559903 0.00841288 0.00800811 0.00251453 0.00895886 0.0078606 0.00568484 0.00737792 0.00917017 0.00447301 0.00192587 -4.37784e-05 0.00222111 0.00483673 0.00564823 0.000427269 0.00793814 0.00742268 0.00463918 0.00556701 0.00474227 0.00226804 0.00319588 0.00927681 0.00649432 0.00552144 0.00497938 0.00455988 0.00179016 0.0104784 0.00144309 0.00172898 0.00442938 0.00795571 0.0109085 0.00536532 0.00337999 0.0105588 0.0108373 0.00113448 0.0017187 0.00574522 0.00758034 0.0103094 0.00735445 0.00989392 0.000412371 0.000824742 0.00731959 0.00731959 0.00370446 0.0034988 0.007518 0.0093883 0.000554535 0.00664153 0.00539187 0.00572133 0.0106045 0.0089168 0.00987189 0.00797774 0.00586643 0.00236668 0.00846119 0.00827144 0.00918965 0.00715194 0.00543434 0.0090992 0.00272897 0.00220594 0.00468003 0.00048053 0.00412419 0.00164948 0.0056701 0.0101031 0.00565171 0.00133401 0.00904349 0.00573229 0.000613564 0.0022193 0.0104617 0.00590051 0.00542896 0.00208906 0.00328973 0.00495381 0.00550595 0.00258718 -0.000180218 0.00343483 0.00489486 0.00554925 0.00394921 0.00380825 0.0101638 0.00783129 0.000151613 0.00317844 0.000398786 0.00620268 0.00896907 0.00546392 0.000119501 0.00734136 0.00256199 0.00306635 0.00465384 0.00428059 0.00657917 0.0132778 0.00913436 -4.22692e-05 -0.000269412 0.00036309 -0.00226596 -0.00922337 -0.0076201 -0.00703798 -0.00488936 -0.00466046 -0.00255741 0.00569303 0.00589198 0.00397196 0.000809326 0.00813748 0.00653434 0.00476756 0.00814433 0.0071134 0.00756351 0.00722815 0.00400542 0.00586278 0.00630725 0.00321314 0.00449666 0.0058072 0.00489079 0.001356 0.00390049 -0.00725024 -0.0115913 -0.0136811 -0.0128413 -0.00211854 -0.00940623 -0.00235567 -0.00658751 -0.00269966 -0.00299805 0.00269946 0.00559689 0.00356641 0.00665104 0.0084022 0.00134021 0.00316192 0.00935416 0.00338703 0.0031942 0.00526258 0.00679656 -0.000975268 -0.000528347 0.00872993 0.00741123 0.000487326 -0.00359532 -0.00529153 -0.00409007 -0.00891711 -0.00523876 -0.00819656 -0.00921252 -0.00764796 0.000123767 -0.00558347 -0.00456099 0.00107477 0.00631459 0.00777273 0.00666989 0.00312163 0.00617354 0.00945805 0.000656914 0.0105167 0.0116372 0.00974768 0.000214376 -0.00115193 0.0079788 0.00652695 -0.00171567 -0.00858965 -0.00993851 -0.00338259 -0.00827933 -0.00789536 -0.0114501 -0.0116286 -0.00394955 -0.00894347 -0.00554805 -0.00456126 -0.0073784 6.23228e-05 -0.00203514 0.00264098 0.00159278 0.00593216 0.00298565 0.000339705 0.00781149 0.00742503 0.00875299 0.00532544 0.00671402 0.00714106 -0.000482773 -0.000212202 -0.00675866 -0.00262596 -0.0105518 -0.0103559 -0.00300766 -0.00528845 0.00164998 0.000725479 0.000783414 -0.00220515 -0.00419034 -0.00290806 0.000990647 -0.00185202 0.00371284 0.00842728 0.00956868 0.00602994 0.00690252 0.00810957 0.00372577 0.00280552 0.00274796 0.0109599 0.0122129 0.00513551 0.00110129 -0.00812624 -0.00792434 -0.0126924 -0.00630957 -0.00815595 -0.011169 -0.00531952 0.0014861 -0.00634419 0.00388136 -0.00445673 -0.0116816 -0.00807333 0.000763022 -6.32276e-05 0.00380894 0.00470629 0.000325466 0.00770036 0.00731908 0.00488032 0.00325036 0.00778709 0.00160872 0.00691039 0.00621345 0.00123242 -0.00218438 -0.00256939 -0.00389344 -0.00476903 0.00131426 -0.00363027 -0.00759856 -0.00439391 0.0015693 -0.00386622 0.00300283 1.14361e-05 -0.00633406 0.00227583 -0.00355987 0.00306899 0.0068452 0.00286051 0.00873987 0.00769195 0.00195876 0.00586745 0.00191322 0.00706162 0.00227717 0.0110179 0.010893 0.00791625 0.0032235 0.0020931 -0.00254157 -0.00687191 -0.00654739 -0.00739177 -0.000251426 0.000547511 0.00525724 0.00241761 -0.000746991 0.00374752 -0.00184305 0.00329819 -0.001452 0.00909035 0.00931194 0.00634225 0.00957379 0.00277058 0.00206186 0.00507446 0.00921717 0.00593125 0.00325285 0.00633513 0.00417825 0.0116658 0.00949928 0.00531413 -0.00529162 -0.00838565 -0.00389244 -0.00264768 -0.0039517 0.00198437 0.00470021 -0.00211306 0.00892324 0.00864 0.00885037 0.0012357 0.00665679 0.0048484 0.000708039 0.001602 0.000248344 0.00391155 0.00670103 0.00426122 0.00381891 0.00479693 0.00449866 0.00600344 0.0086209 0.00522205 0.00641946 0.00350253 -0.00655268 -0.00310187 -0.00980454 0.00233369 -0.00497368 -0.00413303 -9.17754e-05 0.00341562 0.00685905 0.00529604 0.00862601 0.0041833 0.00498811 -0.00219061 -0.000978074 0.00243265 0.00950496 0.00463862 0.00969072 0.00803447 0.00222221 0.0109023 0.00896998 0.00505518 0.00895567 0.00839598 0.00837221 0.00651839 0.00500748 0.00357126 0.00126521 -0.00517112 -0.00380867 -0.000577246 0.00595596 0.0126834 0.00676869 0.00813425 0.000164615 0.00480496 0.00974473 -0.000251294 -0.00324099 0.00725623 0.00735265 -2.19056e-05 0.00371134 0.00205697 0.00379617 0.00391372 0.00542061 0.0098375 0.00461608 0.000282387 0.00899455 0.00391374 0.00903735 0.00619804 -0.000473059 9.00775e-05 -0.00170433 0.0063728 0.00261821 0.000435198 0.00443852 -0.000695039 0.00678415 -0.00206632 0.0045959 0.000446079 0.00931038 0.00997326 0.000949615 0.00375783 0.00690722 0.00824596 0.00462618 0.00794971 0.00882709 0.00810506 0.000177721 0.00836168 0.00471376 0.00498952 0.00244644 0.00186317 -0.00308704 0.000693519 -0.000604823 0.000904023 0.00462946 -0.00386251 0.0019175 0.00248562 -0.00207601 0.00136523 0.00467686 -0.000829355 0.00181979 0.0134903 0.007393 0.00853431 0.00463918 0.00494845 0.00988627 0.0070858 0.00786229 0.00685482 0.0068319 0.00750313 -0.00311322 0.00185156 0.00650453 -0.00185272 -0.0080301 -0.00749284 -0.00312474 -0.00279403 0.000604185 0.00349661 0.00853739 0.0039586 0.00750903 -0.00247119 0.00114455 0.00375832 0.00593013 0.00916948 0.000273237 0.00307787 0.00494845 0.00399069 0.00846896 0.00477128 0.00412751 0.00438009 -0.00146715 0.000974376 0.00343418 -0.00496294 -0.00507946 -0.00521575 -0.0103914 -0.000436496 0.00166843 -0.00554656 0.00150387 0.00227324 0.00760319 0.000939225 0.00727509 0.00800686 0.0013043 -0.00224283 0.00470113 0.00176842 0.00684903 0.00916935 0.00309278 0.00709767 0.00979736 0.0102586 0.00592537 0.000738824 -0.0033886 0.00397443 -0.00587745 -0.00957942 -0.00940765 -0.0125332 -0.00849177 -0.0040048 -0.00768114 -0.00982292 -0.00768115 -0.00487522 0.00291298 0.00107504 0.00163602 0.000524531 0.000545189 0.00215898 0.00343281 -7.51021e-05 0.000171637 0.00494845 0.0102062 0.0102062 0.00687812 0.00408944 0.00306297 0.00290929 0.00315139 -0.00151907 -0.00104617 -0.00843896 -0.00547605 -0.00702123 -0.00773541 -0.000347214 -0.0047003 -0.00688593 -0.00311737 -0.00411084 0.00424477 0.00833126 0.00545752 0.000424437 0.00571917 0.00577917 0.00413156 0.00278085 0.0093561 0.0101031 0.00907216 0.00525773 0.009363 0.00638252 0.00236708 0.00518235 0.00756085 -0.000921349 -0.00466705 -0.00224098 -0.0088057 -0.00518573 -0.00876851 -0.00960113 -0.00590614 -0.010936 -0.00931342 -0.00696108 0.000266545 0.00401896 0.00801281 0.000242082 0.000746734 0.00832959 0.00914436 0.000305423 0.00413433 0.000103093 0.00319588 0.00350515 0.00215697 0.00108582 0.00782833 0.00069182 -3.4859e-05 0.00707285 -0.00531509 -0.00229773 -0.0042205 -0.00449749 -0.00246069 -0.0039553 -0.00325162 -0.0049462 -0.00243937 -0.00363359 -0.00136273 0.00558548 0.00491533 0.00546661 0.0102749 0.00839435 0.0095775 0.00154739 0.00254312 0.00752577 0.00412371 0.00639175 0.00589839 0.000827577 0.00423893 0.00769696 0.00650716 0.00467834 0.00542089 0.00681609 -0.00121406 -0.00197455 0.00303493 0.0034511 0.00368635 0.00181068 0.00297354 -0.000606218 0.00291682 0.00825406 0.00669354 0.0065609 0.00727494 0.00613807 0.00427481 0.00887009 0.00659504 0.0101031 0.00845361 0.0014433 0.00907216 0.00154579 0.00108332 0.00917471 0.00612821 0.0087963 0.00570112 0.00559071 0.00769468 0.00868421 0.00476327 0.00148997 0.00423875 0.00913991 0.00519899 0.0017476 0.00206459 -0.000390023 0.00789585 0.0107217 0.00145698 0.00359659 -0.000435151 0.00113145 0.00618249 0.00474227 0.00773196 0.00329897 0.00226804 0.000310049 0.00632352 0.00685639 0.00151238 0.00965279 0.00132394 0.00575456 0.0100474 0.00988648 0.00935146 0.00466142 0.0120874 0.00284787 0.00596761 0.00594954 -0.00186524 0.00598784 0.00867103 0.00568245 0.00603945 0.00279076 0.00855293 0.00268041 0.00453608 0.00216495 0.000412371 0.00762887 0.00412371 0.00340206 0.00494845 0.00329517 0.00172578 0.00270017 0.00336824 0.000676049 0.000832276 0.00794317 0.00979276 0.00737292 0.00858835 0.00854832 0.00559784 0.00547108 0.00673846 0.00938567 0.00878405 0.0047454 0.00913105 0.00172428 0.00773196 0.00783505 0.00463918 0.00515464 0.0028866 0.00206186 0.00453608 0.00958763 0.00659794 0.00979381 0.00659794 0.00443299 0.00597938 0.0101031 0.00453608 0.0043299 0.00835143 0.000929847 0.00690722 0.00969072 0.00948454 0.00659794 0.00876289 0.00742268 0.00948454 0.00371134 0 0.00835052 0.00587629 0.0042268 0.00371134 0.00969072 0.00412371 0.00701031 0.0014433 0.00350515 0.00659794 0.00433632 0.00375107 0.00565668 0.00723283 0.00150072 0.00378117 0.00573804 0.0101286 0.00823147 0.00791566 0.00867356 0.00142535 0.00147715 0.00596828 0.00389283 0.00828194 0.00433706 0.00641649 0.00309908 0.00494845 0.00123711 0.00958763 0 0.00742268 0.00639175 0.00845361 0.00567022 0.00381447 0.00234216 0.00895271 0.00784071 0.000600684 0.00223394 0.00945114 0.00883 0.00226583 0.00805228 0.000651987 0.00866224 0.00773498 0.00634937 0.00305238 0.005782 0.00478179 0.0100156 0.00123087 0.00351282 0.000604107 0.00174512 0.01 0.00628866 0.00989691 0.00639175 0.00473896 0.00474234 0.00469857 0.00369971 0.00701605 0.00714337 0.001698 0.00340153 0.00588408 -0.00194355 0.0023615 0.00359656 -0.00386546 -0.00152334 -0.00152615 0.00344843 -0.000324276 0.00574593 0.00905688 0.00291072 0.00792583 0.00626523 0.00395211 0.00952512 0.00341004 0.00463918 0.00556701 0.00783505 0.00895271 0.000513609 0.00456459 0.0086728 0.00147462 0.00266872 0.00433488 0.00342748 0.00251808 0.00400905 0.00362341 0.00221773 -0.00152498 -0.00579844 0.00134878 0.00121873 0.000385051 0.0024492 0.00632319 0.005846 0.00506071 0.00865118 0.00907692 0.0067781 0.00508186 0.00669485 0.00762887 0.00896907 0.00111329 0.00553375 0.00243938 0.0032786 0.00426439 -0.00605307 -0.00631261 -0.00202273 0.00458959 0.00322169 -0.0093737 -0.00729994 -0.0101231 0.00102554 0.000360609 0.00457306 0.000663613 -0.000765443 -0.00331299 0.00592513 0.00856372 0.00817204 0.00987258 0.0042203 0.00827557 0.00751663 0.00814433 0.00216495 0.00711564 0.00598766 0.00240578 0.00643496 0.00680846 0.00138305 -0.000611905 0.00049383 -0.00341903 -0.00244699 -0.00266303 -0.00686347 -0.00268429 -0.00565997 -0.00270139 0.00150538 -0.00765057 0.00468332 0.00188013 0.00388805 0.00249162 0.00755089 0.00451281 0.00286941 0.00682594 0.00948626 0.00453608 0.00829929 0.000999079 0.00187748 0.0036356 0.00334911 -0.00389938 0.00163072 0.0098005 0.00495716 0.00746433 0.00934217 0.011637 0.00773933 0.00935257 0.00993123 0.00454415 -0.000750326 0.00309992 0.00638626 0.00358733 -0.00587771 0.000603256 0.00298741 0.00688522 0.00423172 0.00986745 0.0027836 0.00412792 9.75018e-05 0.000778052 0.00365424 -0.00243522 0.00400321 0.00998051 0.00883377 0.0177739 0.0141923 0.00640119 0.00943885 0.00986735 0.0137311 0.010558 0.00743679 0.0111839 -0.00749802 0.00192823 -0.000477329 -0.00186188 -0.00273765 -0.00444033 -0.00176957 0.00175785 0.0011313 0.0088035 0.00445323 0.00607571 0.00756329 0.00507494 -0.00105018 -0.00069374 0.0032711 0.00767327 0.00969136 0.0137897 -0.00371189 -0.00423613 -0.00231193 -0.00449626 0.00203476 0.00330523 -0.00645331 -0.00257435 -0.00958271 -0.011187 -0.00428576 -0.013495 -0.00503734 -0.00790746 0.00156513 0.00516883 0.0048413 0.000958906 0.00653318 0.00628079 0.00510207 0.00524967 0.00120756 0.00581589 0.00140772 0.0104343 0.0154576 0.00361462 0.00141472 -0.0020402 -0.00872813 -0.00478368 -0.00426741 -0.00613662 -0.00806082 -0.0129441 -0.0147928 -0.000113455 -0.000667208 -0.0112962 -0.00613086 -0.0061906 -0.00441094 0.000385173 0.000415438 0.00448709 0.00720536 0.00958678 0.00176522 0.00663379 0.00728587 0.00792258 0.00032643 0.00949487 0.00915687 0.00780125 0.00476162 -0.00688507 -0.0121276 -0.0105165 -0.00855686 -0.00764917 0.000286151 -0.00570209 -3.79531e-05 0.00491364 -0.000399736 -0.0027705 -0.00581877 -0.00406644 0.00225125 -0.000236608 0.00691852 0.00138952 0.00991662 0.0014433 0.00248898 0.00715395 0.00184969 0.0100672 0.00638377 0.0133009 0.00231787 0.013886 0.00633896 0.000250345 -0.00628103 -0.00045155 0.00333872 0.00381798 0.00393755 -0.00796841 -0.00629808 -0.000850513 -0.00185623 -0.00171609 -0.00939875 -0.00532222 -0.00101699 -0.000936614 0.00336163 0.00887164 0.00309193 0.00835052 0.00644947 0.00493384 0.00674376 0.00266344 0.00998305 0.00803552 0.00970491 0.00029354 0.00861955 0.00689458 0.00161059 0.00825541 0.00166775 0.00313364 0.00212056 -0.0121452 -0.0153219 -0.00883413 -0.00597018 0.000654566 -0.00614546 0.00193399 0.00140912 -0.000164546 -0.000845019 0.00394664 0.00133895 0.00608247 0.00110721 0.00552698 0.00810722 0.00445039 0.000989873 0.00508555 0.00503345 0.00345246 0.00570596 0.00939326 0.008207 -0.00155436 -0.00423497 -0.00437121 -0.00178397 0.00209157 -0.00674294 -0.00188406 -0.00198079 -0.00950008 -0.00549267 0.00268148 0.00769396 0.000906479 0.0077863 0.000121208 0.00567017 0.000824742 0.00132641 0.00861997 -0.000118725 -0.00402565 -0.000965 -0.000825356 0.000677092 0.00456151 0.006656 0.0139848 0.0105012 0.00802129 0.000284125 0.00254743 -0.00563462 -0.00546174 0.00454804 0.0096711 0.00517813 -0.00359778 -0.00121964 -0.00417779 0.000807394 0.0105933 0.00861349 0.00691979 0.00747763 0.00814433 0.00153879 0.00327069 0.00796888 -7.1014e-05 -0.00101181 0.00322535 -0.00878097 0.00463568 0.00100653 -0.00292123 -0.00402672 0.00663653 -0.0019742 -0.00494997 -0.0123261 -0.0065554 0.000900619 0.00199658 0.0092393 0.00210963 0.000603051 -0.000536857 0.00494112 0.0112096 0.0068668 0.00428896 -9.90382e-05 0.00824742 0.00999779 7.80054e-05 0.00254003 0.00306452 -0.00585315 -0.0035941 -0.00116805 -0.00584398 0.00137844 -0.00540263 -0.00108307 -0.00326197 0.00271501 -0.00472925 -0.00644276 -0.00927724 -0.00163641 0.00347761 0.00497869 0.00119144 -0.00447064 -0.00039557 0.00871736 0.0101069 0.00701472 0.00499777 0.00602143 0.00896907 0.00670103 0.0028791 0.001106 0.00515934 -0.00375857 -0.000121542 -0.00208715 -0.00580131 0.000953253 0.0035399 -0.00449604 -0.00141222 -0.0060979 -0.00395361 -0.00101722 -0.0122285 -0.00802289 -0.0092743 -0.00279557 0.000623406 0.00259744 -0.00273277 0.0116182 0.0148981 0.00561647 0.00400761 0.00388249 0.00350515 0.00163228 0.00287647 0.00751585 -0.000386824 -0.0041243 0.000138317 -0.0089459 -0.00884523 -0.00877029 -0.00374164 0.00366594 -0.00155733 -0.00559277 -0.00162228 -0.00981688 -0.0134251 -0.00956683 -0.0107444 0.00260518 0.00139655 -0.00104752 0.0033396 0.00688136 0.0142424 0.00425377 0.00192918 0.00225663 0.0014433 0.00133759 0.0082217 0.00267268 0.00060959 0.00307551 -0.0048047 -0.00345544 -0.00340185 0.0017045 -0.00626757 -0.00287147 -0.00645582 -0.00829444 -0.00948005 -0.00417068 -0.00641938 -0.00735932 -0.0013036 -0.00476291 6.85275e-05 -0.00210929 0.00623236 0.0114239 0.00864504 0.00981653 0.00794451 0.00505155 0.00103093 0.01 0.00107324 0.0050236 0.00737725 0.000229327 -0.000453813 -0.0010826 0.000861932 -0.00249061 -0.00277664 -0.00617036 0.000253459 -0.00693738 -0.00810522 9.78005e-05 -0.000188194 -0.00358407 -0.00162446 -0.00757604 0.00574547 -0.00218938 0.00556289 0.00815161 0.00817495 0.00776066 0.00781295 0.00608247 0.000824742 0.000412371 0.0085646 0.00682098 0.00667853 0.0017819 0.00459027 0.00160964 0.00232413 -0.0018276 -0.00492119 -0.00723358 -0.00505686 -0.00772662 -0.00431197 -0.00556234 0.00183249 -0.000608916 0.00513161 0.000668354 0.00818507 0.00467967 0.0106704 0.016407 0.00972089 0.00482514 0.00604486 0.00896907 0.00773196 0.0043299 0.00792678 0.00533041 0.00952246 0.00782279 0.00529265 -0.000712246 -0.00327026 0.00577199 0.00378473 0.000300293 -0.0016917 -0.00201012 -0.00193593 -0.00485581 0.00912218 0.0122013 0.0107182 0.00463426 0.00525958 0.00755389 0.0139211 0.0105576 0.0133955 0.0121787 0.00103178 0.00628866 0.00835052 0.00381443 0.00257064 0.00443454 0.00510729 -0.00223947 0.0019907 0.00517126 0.000338204 -0.000750003 0.00714326 0.0118146 0.0100788 0.00144447 0.00194563 0.000239755 0.00210862 0.00850502 0.0103572 0.00808619 0.0076229 0.00365591 0.00302533 0.0040169 0.00651597 0.00631984 0.000821369 0.00773196 0.00597938 0.00381443 0.00515464 9.65741e-05 0.003934 0.00346043 -0.000657917 0.00232608 0.00901512 0.00846739 0.00611712 0.00860109 0.00780597 0.0137323 0.00843287 0.0154174 0.0167157 0.0141181 0.0124339 0.0105419 0.0131046 0.0136267 0.00636121 0.00262859 0.00805756 0.00319288 0.00174899 0.00742268 0.000206186 0.00958763 0.00216495 0.00123784 0.00265392 0.00057568 0.00480958 0.00056033 0.00670358 0.00487158 0.00719933 0.00567219 0.0054167 0.00746482 0.00602216 0.014772 0.00445851 0.0139793 0.00598394 0.0108355 0.00739175 0.00365034 0.00106192 0.00653291 0.00135479 0.00515464 0.000515464 0.0043299 0.00319588 0.00597938 0.00907216 0.00587629 0.00876289 0.00154615 0.00815107 0.00431592 0.00906124 0.00983403 0.00256912 0.00159978 0.0103294 0.00491651 0.00692047 0.00310477 0.000830583 0.00465907 0.00790334 0.00346174 0.00454835 0.00172159 0.00316807 0.00967625 0.00164948 0.00371134 0.00845361 0.00319588 0.00298969 0.00876289 0.0085567 0.00742268 0.00628866 0.00268041 0.00958763 0.00824742 0.000309278 0.00154639 0.0042268 0.000309278 0.00299183 0.00505623 0.00340206 0.00814433 0.00402062 0.00597938 0.00907216 0.000309278 0.00948454 0.00350515 0.00824742 0.0101031 0.00134021 0.00247423 0.00505155 0.0043299 0.00701031 0.00391753 0.00371134 0.00103093 0.00618557 0.0079388 0.00486573 0.000854528 0.00351522 0.00999117 0.00494222 0.00062344 0.00651952 0.00253589 0.00469432 0.00869708 0.00108124 0.00863297 0.00325543 0.00652403 0.000149435 0.00566117 0.00950275 0.0084598 0.00340206 0.00783505 0.00556701 0.00216495 0.000206186 0.00752577 0.000412371 0.00742293 0.00680421 0.00573482 0.00876772 0.00338733 0.00553328 0.00202942 0.00646528 0.007964 0.0106293 0.00319591 0.00661922 0.00575033 0.00754633 0.00177464 0.00423415 0.00498793 0.0050391 0.00407948 0.00767236 0.00675545 0.000727794 0.00123585 0.00814433 0.00639175 0.00278351 0.00360825 0.00690573 0.00195889 0.00842888 0.00752631 0.0073971 0.00931322 0.00378124 0.00376316 0.00391055 0.00857357 0.00165699 0.00817293 0.00144671 0.00312281 0.00708637 0.00106209 0.000949831 0.00768931 0.000625581 0.00803727 0.00171676 0.00583002 0.00930206 0.00543737 0.00834719 0.00391753 0.00309278 0.0014433 0.00907053 0.00443132 0.00460293 0.00664777 0.00848265 0.00593026 0.00477583 0.000397918 0.0105819 0.00537942 0.00524626 0.00560512 0.00350582 0.00629206 0.00839437 0.000654599 -0.000399474 0.00787744 0.00404576 0.00761655 -0.000345973 0.00133453 0.00124234 0.0057257 0.0088907 0.000214392 0.00226804 0.00206186 0.00351757 0.000242442 0.00866447 0.00374593 0.00315232 0.00068901 0.00522396 0.00289084 0.00514763 0.00663588 0.0035315 -1.77965e-06 0.00381628 0.00366995 -0.00182303 0.00257835 -0.00575124 0.00294029 0.00201218 0.00245365 0.000679407 0.0074025 0.00100359 0.00784696 0.00495817 0.00392965 0.00752577 0.0102062 0.00309587 0.00306138 0.00279547 0.00612991 0.000358563 0.00285288 -0.00184514 0.004135 -0.00214488 0.00348775 -0.00323869 -0.00645826 -0.00495244 -0.00084671 -0.00673761 0.00226003 -0.00245375 0.00259589 -0.00481903 0.00401321 0.00342305 0.00623154 0.00726324 -0.000421495 0.00936026 0.00230992 0.00319588 0.000406553 0.00766714 0.00883129 0.00704865 0.000877901 0.00412611 0.00383769 -0.00102835 0.00636276 0.00603861 0.00504793 -0.00247237 -0.00455379 -0.004682 0.00116838 0.000937424 -0.00368536 -0.00950327 -0.00136502 -0.00565769 0.00370775 0.00580823 0.00176105 0.00748487 0.00287701 0.00117043 0.00528397 0.00227746 0.00959233 0.00674484 0.00690492 0.00726249 0.000603237 0.0033883 0.00221051 -0.00168556 0.00487496 -0.00247001 -0.00311093 -0.000101053 0.00270963 0.00197977 0.00318107 0.00171903 -0.00711788 0.000206548 0.00258 -0.00449077 0.00146821 -0.00140381 -0.00126142 0.000315714 0.00678736 0.0058429 0.00339187 0.0037123 0.00910411 0.0048791 0.000720573 0.00660825 -0.000617629 0.00459006 0.000228868 0.00629377 0.00483315 -0.00283761 -0.00566803 7.95841e-05 0.00324833 1.28323e-05 0.00412484 -0.00017039 -0.00334214 -0.000849626 0.0046874 -0.000964235 -0.00290623 0.00397987 -0.000107271 0.00439546 0.00902388 0.000154506 0.00259411 0.00752688 0.00381232 0.00089421 0.00955172 0.00863653 0.00548925 0.00145169 9.10998e-05 0.00204612 -0.00640766 -0.00524031 -0.00425243 -0.00249307 -0.00115655 -0.000909673 0.000687987 0.000458948 -0.00169195 0.00409593 -0.00211741 0.00197712 -0.00376124 -0.00137577 0.00255286 0.00180329 0.00635666 0.00921783 0.00585619 0.00144342 0.00135244 0.00987042 0.0051869 0.000290172 -0.00156203 5.21137e-05 3.87674e-05 0.0051624 -0.0067538 -0.0012619 0.00137493 -0.00480028 0.00126577 -0.00446352 0.00545144 -0.00615821 -0.00265281 -0.00455142 -0.00511419 -0.00236902 -0.00348535 0.00787569 0.00261518 0.00793511 0.0108444 0.00779851 0.00771733 0.000206186 0.00679457 0.00992237 0.00205571 0.0105815 0.00729204 0.0082498 0.00593928 0.000426265 -0.00205635 -0.00864161 -0.00580371 0.000573357 0.000263948 0.00164113 -0.004638 -0.00750642 -0.0042575 0.00235791 -0.00662368 -5.06622e-05 -0.00319183 -9.81375e-05 0.00530166 0.00542498 0.00649077 0.00166307 0.00866237 0.00371134 0.00967046 0.00545445 0.0101666 0.00804951 0.00808902 0.000431194 0.00194436 0.00196237 0.00132864 -0.007482 -0.00787064 0.00253168 -0.00196611 0.000765395 -0.00522361 -0.00479773 -0.00676229 0.000986919 0.00200917 0.0010823 0.00411771 -0.00114428 0.00603924 0.00858794 0.00531921 0.00555202 0.00752831 0.00628866 0.00514357 0.00915363 0.00610467 0.00959097 0.00309935 0.0104055 0.000417421 0.0026497 -0.00524273 -0.00270991 -0.00243105 -0.00160316 0.000325872 -0.0069711 -0.00726718 -0.00748452 -0.00887192 -0.00567667 -0.00020831 0.00287229 0.000404823 -0.00205828 0.0059003 0.00525713 0.00338051 0.00694747 0.00237131 0.00237113 0.00401711 0.00830966 0.00299043 0.010093 0.00592667 0.00455868 0.0042919 0.00611609 -0.00479558 -0.00399255 -0.00163955 -0.0041743 -0.00370901 -0.00419313 0.00169009 -0.00264175 -0.00442693 -0.00276885 -0.00219334 0.00296331 -0.000781499 0.00222 0.00716425 0.00399868 0.00842165 0.00939445 0.00226332 0.0043299 0.00659505 0.00271356 0.00108236 0.00454297 0.003165 0.00410137 0.00413185 0.00245213 -0.00514814 0.00369435 -0.00479044 -0.00463589 0.00266958 0.00156745 -0.000434797 -0.00518172 -0.00374918 -0.00482551 -0.00103074 -0.00261398 0.00265911 0.00821342 0.00187633 0.00203219 0.00480001 0.00813917 0.0039036 0.00639175 0.00113345 0.00414865 0.00833471 0.00675883 0.00498342 0.00702718 -0.00187838 0.00116695 -0.0047522 0.00516684 0.0017787 0.00401297 -0.000451338 0.00127979 -0.0010652 -0.000946856 0.00223171 -0.00523789 -0.00557028 -0.00468498 0.00554704 0.00441071 0.00502572 0.00323247 0.00629656 0.00818645 0.0014537 0.00371134 0.00175258 0.00694092 0.00919554 0.0084337 0.00706267 0.00748948 -0.0018941 0.00273336 0.00309798 -0.00319653 0.00240819 -0.00270521 -0.000643501 -0.00100036 0.002017 -6.05999e-05 -0.00363952 -0.00231749 -0.000598917 -0.00399603 -0.00212834 0.00737405 0.00330498 0.00231109 0.002585 0.00826519 0.00463986 0.00917526 0.00567318 0.00363703 0.000323975 0.00335345 0.000187657 0.0033551 -0.00334653 0.00237266 -0.00506192 -0.00463323 0.00386696 -0.0012308 -0.000521347 0.000612901 -0.00478101 0.0015109 -0.00422007 0.00167258 0.00124329 -0.00273319 0.00695857 0.00623304 0.00234326 0.0051136 0.00886452 0.000407063 0.00886057 0.00216495 0.00268407 0.00370375 0.00176985 0.00783418 0.00562589 -0.00155506 0.0043826 0.00169964 -0.00514387 -0.00203494 0.00225961 0.00119188 0.00161042 0.00316067 0.00309673 -0.00153832 0.00317558 -0.000135521 -0.000128115 -0.000883118 0.00266667 0.000915874 0.00268803 0.0047739 0.00690329 0.00146378 0.00608247 0.00701031 0.00680412 0.00929506 0.00156144 0.0084812 0.00913933 0.00694371 -0.00244574 -0.00349334 0.00258941 0.00185677 0.00221118 0.00314023 -0.00148101 -0.00636131 -0.00201636 0.00285635 -0.0017154 -0.00118705 -0.00236184 0.00393835 0.0040941 0.00391747 0.0031561 -0.0010679 0.0047255 0.00711443 0.00793814 0.00762887 0.00927835 0.00684082 0.00871895 0.00719551 0.00325085 0.00283335 0.00145765 -0.00111237 0.0042806 -0.00251715 0.000431327 0.00408901 -0.00137692 -0.00135725 -0.00199007 -0.0031326 -0.00326662 -0.00182658 0.00461905 -0.00231929 -0.00526235 0.00614313 0.00467126 0.00235332 0.00191744 0.0077743 0.00484536 0.00979381 0.00402062 0.00845283 0.00188907 0.00441106 0.00670164 0.00505439 0.00367953 0.00590884 -0.00249598 0.00138453 -0.00208356 -0.000141028 -0.0020121 -0.00583059 -0.00530126 0.00378843 -0.0019404 0.0020239 -0.0021896 0.00272295 0.00194159 0.00764532 0.00191857 0.00173605 0.00635037 0.0093452 0.000412371 0.00628866 0.00649485 0.00393262 0.00799326 0.00641713 0.00399256 0.00610348 0.0052277 0.00679729 0.000652842 0.003316 0.00200679 0.00509997 0.00143125 -0.00472563 0.0058251 0.0010759 0.00530276 0.00531833 0.00641659 0.00800523 0.00854547 0.000568416 0.00949371 0.00976089 0.0038159 0.0031965 0.00134021 0.00670103 0.0056701 0.00659794 0.0087664 0.0084931 0.009517 0.00271139 0.00792933 0.00930787 0.00544821 0.00577438 0.00449606 0.00647634 -0.00099975 0.00247386 -0.000527166 0.00522735 0.00565986 0.00494524 0.00749976 0.00204802 0.00161387 0.00650995 0.00669483 0.00291769 0.00969127 0.00670169 0.00443299 0.01 0.00824742 0.00628866 0.00412368 0.00360192 0.0102004 0.00533329 0.00405211 0.00211407 0.00811667 0.00163065 0.00293036 0.00629892 0.00527383 0.00494798 0.00445187 0.000288621 0.00284532 0.000172754 0.00101444 0.0049209 0.005192 0.000996607 0.00525815 0.00185676 0.00412371 0.00484536 0.00329897 0.00453608 0.00350515 0.00113402 0.00123711 0.00927835 0.00340722 0.00568235 0.0030998 0.00638231 0.00348067 0.0079336 0.00690872 0.00587809 0.00434199 0.00332542 0.00672369 0.00118747 0.00870892 0.00115001 0.00234607 0.00135578 0.00384237 0.00970058 0.00833953 0.0014433 0.00278351 0.01 0.000515464 0.00680412 0.0101031 0.00670103 0.00907216 0.000412371 0.00402062 0.0071134 0.00927835 0.00134021 0.01 0.0071134 0.00690722 0.00845448 0.010105 0.00731959 0.00958763 0.00329897 0.00402062 0.00484536 0.00845361 0.00969072 0.00989691 0.00824742 0.0014433 0.00360825 0.00391753 0.000309278 0.00618557 0.00216495 0.000103093 0.00628866 0.00907216 0.00670103 0.00701913 0.00857132 0.00783886 0.00515835 0.00977036 0.00625493 0.0100196 0.0107532 0.00204517 0.00483945 0.00458241 0.00629308 0.00191531 0.00516295 0.00810487 0.00924586 0.00680598 0.00277929 0.00670923 0.00639175 0.00412371 0.00618557 0.0102062 0.00453608 0.0042268 0.00917526 0.00402222 0.000825293 0.00584676 0.00818267 0.0104867 0.0034605 0.00165869 0.0111993 0.0101282 0.00420429 0.00892569 0.00750797 0.00706049 0.0137857 0.0151539 0.00749205 0.00605369 0.00621322 0.00297233 0.00993507 0.0055204 0.0054437 0.00605488 0.0043299 0.00371134 0.00731959 0.00360825 0.00978543 0.00464166 0.0101073 0.00887292 0.00570307 0.00453577 0.0112519 0.0154815 0.0118429 0.00707139 0.00807121 0.00546312 0.00495437 0.00960515 0.00799141 0.00770292 0.00699125 0.0103354 0.00372614 0.0101572 0.0052042 0.00300572 0.00271762 0.00132167 0.00434513 0.0071134 0.0102062 0.01 0.00584844 0.00865258 0.00912917 0.00409024 0.00446972 0.0111372 0.0209838 0.0164017 0.013734 0.00435531 -0.00618885 0.00460595 0.0134403 0.0126681 0.00217404 0.00473861 0.00454483 0.000527315 0.00540375 0.00275172 0.000392648 -0.000245004 0.000944623 0.00189787 0.00804364 0.000743985 0.00360825 0.00680412 0.00371064 0.00136804 0.000593694 0.00244214 0.00665593 0.016455 0.0217154 0.015874 0.0113413 0.00592403 0.00288503 0.0171978 0.0106817 0.0069501 0.004634 0.00803198 0.00256852 -0.00704761 -0.00465591 0.000171545 -0.0052651 -0.00310888 0.00225848 0.000949262 0.00761452 0.00560002 0.00804124 0.00989691 0.00898434 0.000230875 -0.00227439 0.00358088 0.00897802 0.0117665 0.0135355 0.00839674 0.0096661 0.0144066 0.0060829 -0.00251672 0.0040608 0.00645719 0.00669011 -0.00445145 -0.0107052 -0.00701914 -0.0105475 -0.00224047 -0.00645043 -0.00263524 0.00621519 0.00538209 0.000393315 0.00911275 0.00402062 0.000879796 0.00905201 0.00687173 -0.00397109 0.0128682 0.0158772 0.0117272 0.00214824 0.00246244 0.00315603 0.00565757 -0.020674 -0.0256458 -0.0159747 0.000688065 -0.00281658 -0.00158795 -0.0056272 -0.00868241 -0.00215688 -0.00186275 -0.0086386 0.00337695 0.00681542 0.0023371 0.00221268 0.00116568 0.00397373 0.0092577 -2.5685e-05 0.00253507 0.00257238 0.011035 0.017121 0.00937701 0.00468976 0.00129979 -0.000552994 -0.00555876 -0.00995701 -0.0175981 -0.0155374 1.70709e-05 -0.00533039 -0.00371151 -0.0102244 -0.0127458 -0.00310603 -0.0112073 -0.007168 -0.00215401 0.00980583 0.00608114 0.00836205 0.00244982 0.00712017 0.00189868 0.0084011 0.00512026 0.00232671 0.00197027 0.0125394 0.0053913 -0.00315243 0.00267813 -0.0040469 -0.00133817 -0.0054822 -0.00940775 -0.00963741 0.000401685 0.000461449 -0.000707805 -0.00277938 -0.0125215 -0.0133361 -0.004504 -0.00493522 -0.00106044 0.00202686 0.00610967 0.00538737 0.000272259 0.00887385 0.00257953 0.0094931 0.0027568 0.0066687 0.0131869 0.010146 0.00673952 0.00444363 -0.00306299 -0.00294689 -0.00519038 -0.00392026 -0.00639314 -0.00694868 0.00758964 0.00369817 -0.00437172 -0.0049729 -0.01054 -0.00288648 0.00147354 -0.00202806 0.010574 0.00724269 0.00210787 0.00355655 0.00619802 0.00154724 0.00861467 0.00316199 0.0113889 0.00435728 0.0125052 0.0113923 0.00395267 -0.00256344 -0.00500993 -0.0157622 -0.0137898 -0.00909011 -0.0037243 -0.00682741 0.0127622 0.0102826 0.00649844 0.00130673 -0.00334357 -0.00691487 0.00843283 -0.00196538 0.0100987 0.0164736 0.00872563 0.00805148 0.000479397 0.00319588 0.00162928 0.0014869 0.00904305 0.00868643 0.00907767 0.0127077 -0.000108501 0.00248938 -0.0111397 -0.0181705 -0.0118162 -0.0181956 -0.012143 -0.0112119 0.0146956 0.00719198 -0.00256762 -0.00437675 -0.00837183 -0.00322343 0.00665906 0.0129044 0.0158694 0.0133766 0.00276067 0.00641655 0.00723504 0.00639175 0.00787376 0.00778651 0.00238711 0.0114036 0.0142667 0.0102697 0.00455189 0.00116125 -0.00312012 -0.0112035 -0.015884 -0.0103719 -0.00739092 -0.0138388 0.00662945 0.00195617 -0.0108323 -0.0189832 -0.0062038 -0.0105008 0.00342323 0.00832579 0.0163023 0.00727243 0.00318863 0.00743076 0.00346001 0.00907216 0.0079454 0.00257175 6.50898e-05 0.011818 0.0128825 0.00809452 0.00157666 -0.00451228 -0.0100425 -0.00251312 -0.0101543 -0.0064423 -0.0165851 -0.0154483 0.00520838 -0.00457637 -0.0126021 -0.00225986 -0.0164973 -0.00660949 -0.00922107 0.00171774 0.0164701 0.0105714 0.00164016 0.00644782 0.00205979 0.0071134 0.00670299 0.00937896 0.0102263 0.00701 0.0267756 0.0109317 -0.00443354 -0.00460753 -0.0113667 -0.0126289 -0.0111575 -0.0117294 -0.0150307 -0.0117568 -0.00330487 0.00169558 8.88437e-05 -0.00211436 -0.00813314 -0.0136349 -0.00892694 0.010978 0.0137268 0.0107384 -0.001113 0.00599252 0.00683171 0.00917526 0.00896785 0.0106893 0.0123627 0.00712816 0.0225499 0.00473679 -0.00567396 -0.00759929 -0.0131895 -0.00996399 -0.0147378 -0.0116322 -0.0114364 -0.0106528 -0.00302306 0.00261342 0.00825022 -0.00225648 -0.0188486 -0.0193177 -0.0108101 0.0133128 0.011836 -0.00204841 -0.00286658 0.00277859 0.000969707 0.00226804 0.00309294 0.00352433 0.00304297 0.0100112 0.0215241 0.0145417 0.00160647 -0.00527899 0.00117197 -0.00500742 -0.00385544 -0.0099977 -0.0118806 -0.0185275 0.00108121 -0.0106811 -0.00473812 -0.0152757 -0.0141879 -0.00954512 -0.00204391 0.0105808 0.0118918 0.00215338 0.00397783 0.00243016 0.00652837 0.00391753 0.00762887 0.00934006 0.00967939 -0.00109046 0.0052731 0.0103276 -0.00107384 -0.0106427 -0.00276982 -0.00429199 -0.0035554 -0.0139985 -0.0211444 -0.0200006 -0.00666055 -0.0138721 -0.00701455 -0.00903891 -0.00186715 0.00136828 0.0133032 0.00875408 0.0104543 0.0104037 0.0079249 0.00635496 0.00204501 0.00226804 0.00672311 0.00180245 0.00819232 -0.00164491 -0.00480916 0.00492964 0.00113081 0.00415071 -0.000157977 0.0109698 0.0106493 0.00495535 -0.00398884 -0.00432109 0.00376307 -0.003034 0.00487323 0.000282835 0.00522264 0.0111242 0.00632611 0.00936305 0.00992154 0.0153735 0.00171815 0.00146105 0.00168881 0.00226804 0.00756006 0.00589117 0.000584829 0.000888225 -0.00838383 -0.00434511 0.00267919 0.00817019 0.0104013 0.0155776 0.00851431 0.0122418 0.00900703 0.0114666 0.0114013 0.0118904 0.0119524 0.0123519 0.00457558 0.00681345 0.00284416 0.00476003 0.00195445 0.00213927 0.00390464 0.00340733 0.0085567 0.000721649 0.00412371 0.00938495 0.0064703 0.0025583 -0.00979212 -0.0131575 -0.0140127 -0.00248639 0.00696866 0.0162387 0.0118979 0.00504737 0.00556706 0.00791313 0.0123174 0.0155524 0.00861863 0.0031434 -0.00152757 0.00455106 -0.00744496 -0.00778615 -0.00776248 0.00170062 0.00723518 0.000822686 0.00195876 0.00608247 0.00453608 0.00958031 0.0108556 -0.000133226 -0.00100455 -0.00949691 -0.00614147 -0.014924 -0.0177063 -0.0174263 -0.0101178 -0.0109136 0.000820254 0.000294541 0.00700088 0.0117281 0.00958404 0.000655158 -0.000214522 -8.10827e-05 -0.00417471 -0.0067909 0.000784321 -0.00426295 -3.44261e-05 0.00243169 0.00278351 0.000412371 0.00463918 0.00750965 0.00383284 0.00559562 0.000339665 0.007548 0.00262731 -0.00210667 -0.00483769 -0.0115701 -0.0111914 -0.00457186 0.00116277 -0.00351419 -0.000345914 0.00374513 0.00876809 0.000326364 0.00179272 0.00285038 -0.00627802 0.0016311 0.00323727 -0.000844638 6.53069e-05 0.00322508 0.00907216 0.00237113 0.00515464 0.00802629 0.00793215 0.00213953 0.0086948 0.0108553 0.00575336 0.00514628 0.00276997 0.0109571 0.00598127 0.00829388 0.00571449 -0.000961246 0.00883096 0.00726837 0.009614 0.00524903 0.000875629 0.000937167 -0.00199556 -0.000900715 0.00863993 0.00475924 0.000433078 0.00957153 0.0028866 0.00958763 0.00412371 0.00247423 0.00898874 0.0100827 0.00900692 0.000287896 0.00203992 0.00760793 0.00953504 0.00217256 0.0127849 0.0102091 0.00967102 0.00725478 0.0103558 0.00904278 0.000508074 0.00169894 0.0028761 0.00327068 0.00213791 0.00534047 0.00754638 0.00265168 0.00276921 0.00493135 0.00175258 0.00226804 0.00298969 0.00515464 0.000412695 0.00858816 0.0039762 0.00622639 0.00700851 0.00818196 0.00132419 0.00252909 0.00500029 0.00773438 0.00454683 0.01052 0.00945896 0.00347932 0.00464029 0.0113339 0.00383869 0.00527507 0.000777125 0.000786548 0.00464518 0.00692027 0.000721649 0.00546392 0.00597938 0.01 0.00845361 0.000412371 0.00484536 0.00103093 0.00495333 0.00858159 0.0065092 0.00436591 -0.000155486 0.00897453 0.00477149 0.00286849 0.010022 0.00945088 0.00498475 0.00265514 0.00346873 0.0024348 0.00030146 0.00853033 0.00322795 0.00229941 0.00992596 0.000927835 0.0101031 0.00515464 0.00938144 0.00216495 0.0101031 0.00206186 0.0057732 0.00206186 0.0085567 0.00835052 0.00649485 0.00175258 0.00804124 0.00494845 0.00649485 0.00638954 0.00164464 0.00659794 0.000309278 0 0.01 0.00835052 0.00412371 0.00948454 0.0042268 0.00443299 0.0042268 0.00164948 0.00556701 0.0028866 0.00649485 0.00391753 0.00762887 0.00701031 0.00597938 0.00927835 0.0034019 0.000189911 -2.51811e-05 0.00228682 0.00304891 0.00983284 0.00254493 0.00584113 0.000585517 0.00784111 0.00349338 0.00363761 0.00292917 0.00417524 0.00848355 0.00584774 0.00662878 0.0101832 0.0035998 0.00494845 0.00690722 0.00701031 0.01 0.000618557 0.00917526 0.00938144 0.0078378 0.00814528 0.00977851 0.00849719 0.00722715 0.00549575 0.00484642 0.00671047 0.00382192 0.00164545 -0.00149598 0.000747508 0.00195182 0.000848719 0.00443002 0.00054929 0.00618898 0.000859465 0.00670116 0.00605453 0.00189875 0.0066838 0.00350256 0.00360825 0.00484536 0.00103093 0.00154639 0.00443358 0.00237938 0.00316723 -0.000178885 0.00421737 0.00197293 -0.000206872 0.00222521 -0.00110561 -0.00467554 0.000297179 -0.00524519 0.00108035 0.00381428 -0.00174733 0.00473758 0.00297026 0.00276295 0.00464484 0.00303818 0.00804243 0.00255284 0.00520751 0.00403959 0.00546743 0.0102062 0.0102062 0.00113402 0.00958619 0.00216572 0.00329795 0.000545636 0.000116842 0.000508061 0.00699857 0.00126305 0.00197935 -0.0013989 0.00126813 -0.00309457 -0.00336629 0.00171634 0.00183868 0.00455352 0.00221447 0.00378348 0.0011942 0.00108863 0.00214073 0.00138557 0.00607828 0.00127459 0.0053266 0.0067936 0.00309278 0.0042268 0.0076159 0.000670061 0.00798394 0.000262029 0.00477337 0.00591806 0.00281914 -0.00171582 -0.000454353 0.00298817 -0.00338877 0.00264753 0.00561018 0.00603457 0.00158704 0.00436576 -0.00181606 0.0020418 0.00144057 0.00773043 0.0104637 0.00322675 0.00457387 0.00380447 0.00108982 0.000190629 0.00484536 0.0071134 0.00645569 0.000448393 -9.66666e-05 0.00282742 0.00695546 -0.000192772 0.00414746 -0.00013179 -0.00252203 0.00207343 0.0035007 -0.00026544 0.0025261 0.00197571 -0.000516661 0.00727086 0.0063379 -1.0842e-05 -0.00299153 0.0101577 0.0126351 0.0087948 0.000998071 0.00956389 0.000521375 0.00351077 0.000824742 0.00335228 0.00743257 0.00345762 0.00887094 0.00267469 0.000577686 0.00640971 -0.00726169 0.00163477 0.00471948 0.00197334 -0.00757355 0.00017816 -0.00345009 -0.006138 -0.00115116 0.00479401 0.00190364 0.00506878 0.000866335 7.68649e-05 0.00735908 0.00826056 0.00586755 0.00337547 0.0085579 0.0099656 0.00974543 0.00286947 0.00641756 0.00584948 0.00206648 0.00469681 0.00292522 0.00696835 0.00180143 -0.000360895 -0.00249075 -0.000266087 0.00303666 0.0018342 -0.00579627 0.00082166 -0.00100074 -0.000378014 0.00785086 0.00498312 -0.000951658 -0.000298841 0.0129651 0.00796828 0.0103557 0.00244303 0.00880096 0.00588215 0.00196834 0.00869883 0.00382096 9.91544e-06 0.00697974 0.0049574 0.00253927 -0.00309383 -0.00556378 -0.00454938 -0.00149789 -0.00134823 -0.00176933 -0.0046378 -0.00208797 -0.00745826 -0.00288409 -0.00307638 0.00764668 0.00967519 0.00610927 0.0114871 0.0106141 0.00673171 0.013748 0.00734068 0.00792132 0.00376757 0.00320701 0.00838262 0.000990923 0.00884488 0.00931069 0.00780839 0.00477261 0.00372017 -0.000503025 0.000473609 0.00496928 -0.000964084 -0.00267402 -0.00108594 -0.0011639 0.00105759 -0.00361463 0.0022448 -0.000466015 0.00331508 0.00854441 0.012658 0.00829011 0.0102495 0.00438574 0.00880725 -0.000230821 0.00487442 0.00288779 0.00679339 0.00652999 0.00830398 0.00542542 0.004771 0.00449798 0.00544799 0.00931998 0.00125629 -0.000193736 -0.00160695 0.00195373 -0.0017403 -0.00174553 -0.00397504 -0.00459995 -0.00581753 -0.00492353 0.00274923 0.00962041 0.00116274 0.00327236 0.00916266 0.00524043 0.0094762 0.00815486 0.00093533 0.00649485 0.00107792 0.0105946 0.00803079 0.00105087 -0.000229303 0.00495436 0.00438824 0.000231477 -0.00426976 -0.00805991 -0.00248537 -0.00427481 -0.00253511 -0.0104197 -0.00940644 -0.0154204 -0.00689722 -0.00106485 0.00153639 -0.00310863 -0.000407067 0.00501845 0.0110428 0.00818922 0.00789343 0.00310037 0.00930522 0.00917526 0.00514162 0.000138719 0.00392924 0.0114914 -0.000156324 0.00646462 0.0149364 0.000416641 -0.000877855 -0.00551274 -0.00222309 -0.0034058 -0.0103254 -0.0165142 -0.0137611 -0.0140185 -0.0129842 -0.00592389 -0.00287015 -0.00697289 -0.00241595 0.00622873 0.0102968 0.00107647 0.00435065 0.00634168 0.0083474 0.000927835 0.00528324 0.00995934 0.00720228 0.0107701 0.00435329 0.0064929 0.0159559 0.00481526 0.00154817 -0.00029194 -0.00663947 -0.00275715 -0.00893301 -0.0150022 -0.0201463 -0.0153093 -0.0086773 -0.00419773 -0.00521145 -0.00607556 0.00328112 -0.00174749 0.00150936 0.0079158 0.00768447 0.00420234 0.00907238 0.0102062 -1.48763e-05 0.00285667 0.00959837 0.00918684 0.00855803 0.0105923 0.00678572 0.000950989 -0.00223821 -0.00554141 -0.00956593 -0.0128033 -0.0203515 -0.0189569 -0.018222 -0.0184099 -0.00892574 -0.00673479 -0.005696 0.00084062 -0.00883287 -0.0016438 0.00955959 0.00980037 0.00241147 0.00692991 0.00172637 0.00298969 0.00720586 0.00777825 0.00507202 0.00728121 0.00837082 0.00375268 0.0110111 0.00251826 -0.00481256 -0.00299155 -0.00544341 -0.0122289 -0.0172068 -0.0106341 -0.00912603 -0.0116468 -0.0078557 -0.0118214 -0.00692724 0.000772367 -0.00256091 -0.00149937 0.00947643 0.00234304 0.00505933 0.00618301 0.000776767 0.00597938 0.00319303 0.00389412 0.00580336 0.0119823 0.0133126 0.00953955 0.00976188 0.000421125 -0.00147056 0.000388985 -0.00266543 -0.00705256 -0.0115989 -0.0137521 -0.00404913 -0.00885985 -0.00956009 -0.0128713 -0.00202153 -0.00533442 -0.00135636 0.00104198 0.00394211 0.00999495 0.00108296 0.00593599 0.00912524 0.00247423 0.00938144 0.00921322 0.00792104 0.0057311 0.00283328 0.00713659 0.00907219 0.00608033 -0.00309014 -0.00623672 -0.00639648 -0.000999277 -0.00997693 -0.00911622 -0.0074122 -0.0111891 -0.00472143 -0.00339635 -0.00375422 0.00126065 0.00233645 0.00145352 0.00920991 0.00373487 0.00906433 0.00238421 0.00604638 0.00680412 0.00438455 0.00196528 0.00296858 0.007016 0.00794158 0.00286664 0.00241108 0.0105528 -0.000268627 -0.00433418 -0.00688767 -0.00730108 -0.00194106 -0.00404764 -0.00911301 -0.0093756 0.000888341 -0.00082894 -0.00178548 -0.00478345 0.00590394 0.00607801 -0.00105358 0.00527862 0.00633797 0.0082046 0.00472764 0.00463918 0.00273016 0.00551661 0.00281873 0.000152274 0.00368607 0.00604446 0.00531598 0.00339566 0.00203167 -0.00227753 0.000634386 -0.00632509 -0.000406412 -0.00652262 -0.0114772 -0.00821806 -0.0051883 -0.00148531 -0.00798523 -0.00291688 -0.00179948 0.0053074 -0.00294945 -0.00105079 0.000812158 0.00494945 0.00979381 0.00917526 0.00731959 0.00877934 0.0100113 0.0018206 -0.005422 0.00291076 -0.00131193 0.00398798 -0.00105883 0.000923154 -0.00204195 -0.00418808 -0.00836601 -0.00990668 -0.000704928 0.00289464 0.00337813 -0.000655564 -0.00180999 -0.000988236 -0.0049636 0.00570997 0.00677801 0.00558318 0.000713464 0.0100686 0.0028866 0.00237113 0.00360825 0.00486099 -0.000293169 0.00327688 -0.00131257 -0.00195485 -0.00251662 0.00408571 0.00229897 0.00557043 -0.00100948 -0.00681769 -0.00136145 0.00533202 0.0030521 0.00302144 0.00533204 0.00378786 0.000239254 -8.62711e-05 0.00177709 0.0028566 0.0057498 0.00435793 0.00413724 0.00447923 0.00494845 0.00474227 0.00979381 0.00894573 0.00942022 -0.00103403 0.00261704 -0.00204227 0.00114282 -0.00051801 0.00421379 0.00925238 0.00908258 0.0103804 0.00900725 0.00864877 0.0150592 0.00382329 0.00103311 -0.000811727 0.00100878 -0.000332098 0.00685575 0.00416176 0.00808236 0.00362077 0.00734144 0.00671544 0.00546392 0.00371134 0.00474227 0.00986265 0.00311268 0.00997048 0.00810939 0.00823123 -3.79223e-05 0.00695023 -0.00127429 0.000838144 0.00524619 0.0047355 0.0122236 0.0117675 0.012116 0.00270371 -0.00127734 -0.00366744 0.00299661 0.00463764 0.00435479 0.00768729 0.00808448 0.00706676 0.00407373 0.00535722 0.00309278 0.00597938 0.000206186 0.000206186 0.001355 0.000912115 0.00601859 0.00847429 0.00666682 0.00195301 -0.0034912 0.00543077 0.00540098 0.00693991 0.00571156 0.00142522 0.00122514 0.00560646 0.00572089 -0.000229865 0.00791969 0.00801359 0.00451849 0.0071418 0.00925593 0.00794309 0.00381123 0.00195493 0.00175258 0.00268041 0.000412371 0.00793814 0.010205 0.00170907 0.00636994 0.00618738 0.00960352 0.000266148 0.00467749 0.00522845 0.00349954 0.00292955 0.0019223 0.00187035 0.00199106 0.00822849 0.00742594 0.00947315 0.00593448 0.00854539 0.00198629 0.00770028 0.00546784 0.00608236 0.00298969 0.00474227 0.0085567 0.00731959 0.00876289 0.0028866 0.00731959 0.00494845 0.00401744 0.000719668 0.0073622 0.000413161 0.00442755 0.009661 0.00430293 0.00110005 0.00232464 0.00868942 0.00694172 0.00998868 0.00287819 0.00392275 0.00234866 0.00232343 0.00497828 0.00358563 0.0059471 0.00515464 0.0102062 0.00278351 0.00515464 0.0101031 0.0014433 0.00835052 0.00195876 0.00319588 0.00319588 0.00783505 0.000618557 0.00164948 0.000515464 0.00917526 0.00845361 0.00327533 0.00778331 0.00938144 0.0101031 0.00969072 0.00257732 0.000206186 0.00412371 0.00659794 0.00237113 0.00463918 0.0056701 0.00515464 0.00402062 0.00546392 0.00773196 0.00237113 0.00402062 0.00865979 0.00938144 0.00329897 0.0074081 0.00957916 0.00840378 0.0035925 0.00969228 0.00626667 0.00324274 0.00152424 0.00618454 0.00222471 -0.000641077 0.00864049 0.00278386 0.00204312 0.00645531 0.000849782 0.00361079 0.00753626 0.000969529 0.00164948 0.00453608 0.00814433 0.000103093 0.00608247 0.0057732 0.00474227 0.000309437 0.00615017 0.00351873 0.00500911 0.00547256 -0.00124114 0.00451989 -0.00592486 -0.00803221 0.000389374 0.00797659 0.00822441 0.000520152 0.0056052 0.0084696 0.000469508 0.00255808 0.00307585 0.00506022 -0.000764208 0.00268289 0.00752267 0.000309451 0.00896907 0.00835052 0.0028866 0.00154639 0.00578472 0.00929351 0.00825862 0.00743561 0.00580273 0.00116098 0.00288151 -0.0105193 -0.00788167 -0.0047098 0.00454914 0.00785151 0.00595501 0.0102776 0.00859404 -0.0035978 0.00314792 0.00324831 0.0154021 0.00253597 0.00396046 0.00229336 0.0066765 0.00256002 0.00777937 0.00907216 0.0042268 0.00463918 0.0048836 0.00269035 0.00169849 0.00421848 0.000831914 0.00635723 -0.00181048 -0.0119821 -0.0174488 -0.0127079 0.00167545 0.00481755 -0.00121086 0.00225196 -0.00699847 -0.0085073 0.00308659 0.00615316 0.0159893 0.0051243 0.00349366 0.010731 0.0106145 0.0079346 0.00734156 0.010096 0.00329897 0.00402062 0.00670184 0.00584562 0.00372241 0.00650795 0.00257311 0.003177 -0.0091085 -0.00834348 -0.0121395 -0.00276051 -0.00485221 -0.00195021 -0.0204302 -0.0196552 -0.0175989 0.00167477 0.00474797 0.0135602 0.00597237 -0.00149488 0.000125203 0.00449832 0.00574755 0.000616959 0.000694629 0.00772148 0.00340206 0.00773196 0.0038648 0.00484542 0.00539621 0.00464903 0.00799785 0.00670445 -0.000360262 -0.00988918 -0.012785 -0.0142371 0.00786074 -0.00145325 -0.0186266 -0.0076669 0.00141125 0.0107901 0.00958223 0.017542 0.0110174 0.00150847 0.000994138 0.00595271 -2.67312e-05 0.009869 0.00667513 0.00148294 0.00958763 0.00906695 0.00982916 0.00768773 0.00810459 0.00800901 0.00846197 0.00616772 0.00106999 -0.010212 0.000805277 0.00172499 0.0200591 0.0171726 0.0067313 0.0133234 0.013583 0.0131892 0.000243952 0.00434378 0.00871767 0.00812134 -0.0120419 -0.00376225 0.00421588 0.0043389 0.00459939 0.00460135 0.00574634 0.00362742 0.0091478 0.00206189 0.00293421 0.00195513 -0.00169941 -0.007495 -0.0123975 -0.0155926 -0.0136883 0.0091417 0.00995925 -0.000541802 0.00296136 0.0077858 -2.82993e-05 0.00241595 0.0103332 0.0103376 0.0163746 0.00872892 -0.0113048 -0.00476874 0.0046562 0.0060165 0.00582714 0.00586083 0.00576732 0.000507647 0.00582234 0.00911743 -0.00251199 -0.00153063 -0.00108325 0.00221715 -0.00375897 -0.00618084 -0.00267839 0.00380317 -0.00689461 -0.00518577 -0.00816929 -0.0130724 -0.0114458 0.00222783 0.00570038 0.0201635 0.0109932 0.00403026 -0.0145998 -0.0100568 -4.07064e-05 0.00115409 0.00640447 0.000875805 0.00401379 0.00555109 0.00607028 0.00824039 0.00412818 -0.00390629 0.000156868 0.0108658 -0.00609091 -0.000740989 -0.00170533 -0.00139265 -0.00368493 -0.00933789 -0.0149645 -0.0143314 -0.0216204 -0.0141557 0.00526839 0.0185564 -0.00182382 0.00326134 -0.0173156 -0.00582651 -0.000363646 0.00954468 0.00522993 0.00197274 0.00319514 0.00855364 0.00020461 0.00266145 -0.00117847 0.00229947 0.0136931 0.00258371 -0.00157006 -0.00696535 -0.00494154 -0.00183885 -0.00184558 -0.00346372 0.00552088 -0.00174264 -0.00360456 -0.00492135 -0.0121806 -0.00268793 -0.00738991 -0.00564634 -0.00988685 -0.00865446 0.00331201 -0.0013797 0.00881726 0.00883772 0.00969072 0.00669909 0.00084211 -0.000458741 0.000133414 0.0233995 0.0117184 -0.00533194 -0.00741215 -0.00871498 -0.000331238 0.000576247 0.00164333 -0.0073238 -0.00171829 0.0115508 0.00272371 -0.0117645 -0.0183477 -0.00720051 -0.0048388 -0.00894839 -0.00268312 -0.00414923 0.000946157 0.000297731 0.000387645 0.00248302 0.0028866 0.00105025 0.00671418 0.00737267 0.00305747 0.0110791 -0.00329062 0.000953463 0.00232907 -0.00712414 -0.00630353 -0.004804 -0.01033 -0.0134451 -0.00364224 -0.00323851 0.000483202 0.000771714 -0.00784354 -0.0035618 0.00153408 -0.00697758 -0.00148412 -0.00233414 -0.00556177 0.00124435 0.00582496 0.00937426 0.00958763 0.00704433 0.00228316 0.00829761 0.0122019 -0.00328589 -0.0109984 -0.00799975 -0.00247402 -0.0120593 -0.0104645 -0.0120285 -0.0270305 -0.0224782 -0.0149289 -0.00586082 -0.0034032 -0.0161275 -0.00844905 0.0154237 0.0114905 -0.00746534 -0.00347527 -0.00801904 -0.00593008 -0.00106903 0.00241887 0.00195821 0.0014433 0.00742243 0.000425775 0.0090023 0.01495 0.0107266 0.00894357 0.00701933 0.00990178 -0.00588392 -0.013348 -0.00864747 -0.0138897 -0.0152259 -0.0163085 -0.0138829 -0.0215499 -0.0220866 0.0036935 0.0207529 0.0069894 -0.00127784 -0.000667168 -0.0129976 -0.00792165 -0.00126719 0.00301424 0.00739112 0.00865979 0.00350229 0.0115297 0.00654847 0.00988971 0.0188629 0.0166529 0.00204346 0.0270992 0.0222227 0.000834729 -0.00256381 -0.00519737 0.00170748 -0.0103434 -0.0228013 -0.0258752 -0.0145633 0.00819515 0.0130329 0.0201595 -0.00481429 -0.0094959 -0.00894031 -0.00303185 0.00260726 0.00921139 -1.08879e-06 0.00505155 0.00989647 0.0104684 0.00661023 0.0132248 0.0123785 0.0162846 0.0141004 0.0368954 0.0266364 0.00799112 0.0156642 0.0112123 0.00616067 -0.00224596 0.00167426 -0.000518232 -0.00462711 0.0161053 0.0248655 0.00952035 -0.0060451 -0.0149936 -0.0129384 -0.00695733 0.00308322 0.000473926 0.00330566 0.00371134 0.00938144 0.0106544 0.0089064 0.0130398 0.0199009 0.00419879 0.0175528 0.0212985 0.0191574 0.015698 0.0147234 0.0138562 0.00573752 0.0125302 0.0134531 0.00589847 -0.00754082 0.0172778 0.0264545 0.0182024 0.0105007 -0.00372578 -0.00328784 -0.00378833 0.000879091 0.00978909 0.00907611 0.0042268 0.00252949 0.00745136 0.0108098 0.0030502 0.0126626 0.00407691 0.0113348 0.022784 0.0235648 0.0162735 0.0197681 0.0106671 0.00849138 0.00598075 0.00340305 -0.0128592 -0.0259328 0.0157087 0.0384878 0.0310464 0.0113422 -0.00115585 0.00355471 0.00648525 -0.000311871 0.00835715 0.00597512 0.00958763 0.00193824 0.00810677 0.00347352 -0.0014272 0.00542197 -0.000844535 0.00752127 0.00827406 0.00999286 0.00298057 -0.00213072 -0.00311856 -0.00721659 -0.0174972 -0.013501 -0.00474311 -0.0172135 0.00988331 0.0419715 0.0352945 0.0115107 0.0107338 0.0110143 0.0116764 0.00596354 0.00139881 0.00814433 0.00969072 0.000824742 0.00810287 0.00764469 -0.00821919 -0.00028543 -0.00610281 -0.00495049 -0.00360002 -0.0167563 -0.0253564 -0.0156836 -0.0172924 -0.0190734 -0.0124518 -0.0226435 -0.0162353 -0.0257593 0.00748059 0.0423877 0.0462327 0.0246589 0.0223409 0.00222553 0.0137657 0.00669348 0.00693597 0.00113402 0.0042268 0.00886598 0.0071646 0.000334301 -0.00756861 -0.00836724 -0.00815599 -0.0175969 -0.0237923 -0.0297327 -0.0247991 -0.0164932 -0.0135922 -0.0206846 -0.0149378 -0.0251092 -0.0180246 -0.0212703 0.0037901 0.0138797 0.0470689 0.041989 0.0218973 0.0113091 0.0130218 0.00315812 0.00288016 0.00608247 0.00237113 0.00134021 0.00514314 0.000257165 -0.00443153 -0.0077852 -0.00623881 -0.00238977 -0.00629139 -0.0185347 -0.0143288 -0.0076882 -0.00575499 -0.00885159 -0.0108155 -0.0118454 -0.0224254 -0.00664717 0.0124301 0.0221478 0.0384395 0.0259787 0.0161252 0.00661259 0.00622805 0.00234724 0.00880331 0.00835052 0.00886598 0.0042268 0.0001542 0.00924672 1.91315e-05 -0.00457842 0.00658611 0.00734401 0.00350037 -0.00105252 -0.0016064 0.000441932 -0.00325867 -0.00552973 -0.00663691 -0.0109449 -0.0087659 0.00797219 0.00812196 0.0204477 0.0274386 0.0230968 0.0143166 0.00643085 0.00439322 0.00816809 0.0049199 0.00649485 0.0042268 0.00340206 0.00175258 0.00658518 0.000647053 0.00701616 0.00826794 0.00807329 0.00812344 0.00968817 0.00630051 0.000564554 0.00413691 -0.00522372 0.00218891 -0.000952052 -0.00283098 -0.00199186 0.0166707 0.00926879 0.00817472 0.0100542 0.00967588 0.0067688 0.00241495 0.00472846 0.00769518 0.00556701 0.00474227 0.00463918 0.00546392 0.00206265 0.00792879 0.00486666 0.00935613 0.000779704 0.00590882 0.00879969 0.00424269 0.00480211 -0.000124225 0.00334034 0.00129489 0.00512205 0.00662222 0.00521315 0.000881167 -0.00327683 0.00802968 0.0107742 0.0105706 0.00184251 0.0031097 0.00237113 0.00298969 0.00876289 0.00484536 0.00690722 0.00731959 0.000103093 0.0085567 0.00545864 0.00785871 0.00750576 0.00631429 0.00773868 0.00308658 -0.000672803 0.00428753 0.00161814 0.00647921 0.00772198 0.0015224 0.00986978 0.00807657 0.00698824 0.00341069 0.00797628 0.00946651 0.00349598 0.00268041 0.00597938 0.0042268 0.00391753 0.00268041 0.00463918 0.0014433 0.0057732 0.0042268 0.00618557 0.00298969 0.00639175 0.00804124 0.00134021 0.00752577 0.0102062 0.00278384 0.00866052 0.0085567 0.00453608 0.00226804 0.00608247 0.00525773 0.00329897 0.00474227 0.00154639 0.00742268 0.00154639 0.00659794 0.00257732 0.0101031 0.0042268 0.00515464 0.00505155 0.00608247 0.000412371 0.00979381 0.000722808 0.00549113 0.0011728 0.00909404 0.0102166 0.00157095 0.0100381 0.00159101 0.00693529 0.000207865 0.000544348 0.003243 6.99209e-05 0.00461093 0.00738595 0.00114647 0.00194085 0.00805307 0.00155013 0.00680412 0.00381443 0.000309278 0 0.0101031 0.00752577 0.00123711 0.00618645 0.00907247 0.00359749 0.00117284 0.000783362 0.00236854 0.0014579 0.00599625 0.00637067 0.00374268 0.0040205 0.00454629 0.00722627 0.00599249 0.00978426 0.00320475 0.0011087 0.00509297 0.00312468 0.000377622 0.0010321 0.00422341 0.00278165 0.00731959 0.00608247 0.00494845 0.00804124 0.00577415 0.00989991 0.00318437 0.00660859 0.00477268 0.00314588 0.00763651 0.000213729 0.002149 0.00760416 -0.000614173 0.00336495 0.000867176 0.000872901 0.00195555 0.00734939 0.0072091 0.00619176 0.000484865 0.00343409 0.0056263 0.0101191 0.00650015 0.00569824 0.00372043 0.00134021 0.00268041 0.00494845 0.00319672 0.00628985 0.00293112 0.00346791 0.00171543 4.16191e-05 0.00935671 0.00245789 0.00651141 0.0083696 0.00291915 0.00100432 -0.000802367 0.000469036 0.00134599 0.00263889 0.00118686 -0.000403751 0.00689186 0.00420907 0.00212778 0.00264496 0.00659973 0.00752485 0.00973119 0.0102032 0.00690722 0.00154639 0.00473346 0.00324884 0.00536108 0.00458101 0.00270075 0.000518517 0.0056678 0.00364748 0.00397656 0.00573276 -0.00275988 -0.0041394 0.00341943 0.00356423 0.00199939 -0.000818927 0.0022566 0.00540459 0.00258439 0.00654083 0.00647003 0.00447452 0.00654609 0.000339388 0.0089719 0.00886155 0.00175258 0.00865979 0.00571824 0.0080988 -0.0011343 0.00311744 0.00614593 0.0105991 0.0091486 0.00885452 -0.000415216 0.00636253 0.00220127 0.00113832 0.00311603 0.000321386 0.00260559 0.00381459 -0.0024629 0.00186846 0.00298433 0.00757384 -0.0024664 -0.00138169 0.00274822 0.00364644 0.006452 0.00720342 0.00793814 0.000905774 0.00986069 0.000109349 0.00439543 0.000728514 0.00489074 0.00569426 0.00158704 0.00400565 0.00323495 0.00225051 0.00462537 0.000668909 0.00465137 -0.00131052 -0.00116311 -0.00226535 -0.00777845 0.000956983 -0.00160697 0.00440687 -0.00330996 -0.00169816 0.00282042 0.00889049 0.00750761 9.72662e-05 0.000327609 0.00349574 0.00346961 0.0022133 -0.0012694 0.00343543 0.00853325 0.00686992 0.00698094 -0.00219665 0.00185547 -0.00362456 -0.00450098 -0.00171103 0.00465102 0.00213842 -0.0035863 -0.00243702 -0.00255935 -0.00575929 -0.00639405 -0.000563389 -0.00392691 -0.00219431 0.00131779 0.000193579 0.00266349 0.00506165 0.00896131 0.00690459 -8.01922e-05 0.00323614 0.0033673 -0.000352914 -0.00112723 0.00292085 0.00343415 0.0020555 -0.00804131 -0.000180489 0.00207383 0.000713259 -0.00159093 -0.00248366 -0.00847351 -0.0109192 -0.00174004 -0.006042 -0.00648372 -0.00842773 -0.00470645 -0.00280331 0.000819214 0.00434093 0.00456643 0.00697439 0.00751675 0.00152258 0.000528215 0.00620496 0.00819815 0.00704896 -0.000885776 -0.000876979 0.00383157 -0.00701872 -0.00170423 0.00249795 -0.000670796 0.000337246 -0.00301648 0.00125188 -0.00907869 -0.00311136 -0.00340217 -0.00885894 -0.00178357 -0.000900783 0.00257483 0.000728678 0.00175913 0.00210885 0.00307185 0.00867267 0.00824645 0.00235404 0.00613198 0.00120341 0.0021631 -0.00101146 0.00655928 0.00281299 0.00408957 -0.00569762 -0.00488822 -0.0010507 -0.00538501 -1.68897e-05 0.000614467 0.00306659 -0.000622372 -0.00617318 0.00252931 -0.00343344 0.00214437 0.00314929 -0.00180907 -0.00406446 0.00333508 0.00744253 0.00202839 0.00215829 0.00587629 0.0042987 0.00536444 0.00384794 0.00480856 -0.00282808 0.000116656 -0.000788138 -0.0044801 -0.00983874 -0.00231415 -0.00386136 -0.000424661 -0.00126047 -0.00280537 0.00626831 0.00121995 -0.000550628 0.00491281 0.00459953 0.00296697 0.001443 0.00402512 0.000882497 -0.000598976 0.00933709 0.00188616 0.00341615 0.000206186 0.0029512 0.000614566 0.00335569 0.00714844 0.00296496 0.00323701 -0.00110407 -0.0019325 -0.00066015 -0.00316459 -0.00388383 0.00144379 -0.00258149 -0.000844186 -0.00401783 -0.00967023 -0.00485963 -0.00753103 0.00138256 -0.0036006 -0.00373876 -0.000467431 0.00519417 0.00454301 0.00547087 0.000915655 1.00753e-06 0.00164948 0.00503233 0.00557416 0.00546605 0.00370566 0.0019702 -5.28588e-06 -0.00283448 -0.0015684 -0.000124381 0.00271024 -0.00389655 0.0013041 -0.00576397 -0.00261334 -0.00501463 -0.00571533 -0.00440162 -0.00122352 0.00402487 -0.000985368 0.000326152 0.00688633 0.007513 0.00798974 -0.000539375 0.00245441 0.000309667 0.00268041 0.00040837 0.00299897 0.00289058 0.00929702 0.00456402 -0.000902673 0.000851634 0.00392194 -0.00186358 -0.000944583 -0.00594418 -0.00388686 -0.00192449 -0.00664724 -0.00680821 -0.013977 -0.00575898 -0.00590284 -0.00075482 0.00211959 -0.00114992 0.00688809 0.00510971 0.00218557 0.00819563 0.00935948 0.00771754 0.00484536 0.00484373 0.0062242 0.00779441 0.00799894 0.000874225 0.00357196 0.0046457 -0.00164522 -0.000553945 -0.00572057 -0.00594715 -0.00454698 -0.00115273 -0.00411172 -0.00393783 -0.00779037 -0.00364337 -0.00361261 -0.0055713 -0.00149908 0.00551648 0.00186861 0.00327478 0.00855713 0.00879786 0.00378511 0.00398849 0.00309278 0.0068036 0.0052735 0.00439124 0.0068189 0.00690082 0.00514478 -0.00329132 -0.00126194 0.00216073 0.0031253 0.00149838 0.000594395 0.00207115 -0.00479116 -0.00327112 -0.00894086 0.000295371 0.001429 0.00179186 0.00421006 0.00258372 0.00392025 0.00890555 0.0088121 0.00178268 0.0078659 0.000618801 0.00938144 0.00381443 0.00855821 0.00879352 0.00117108 0.00763257 0.00158663 0.00111504 0.00222953 -0.0031433 -0.00214043 0.00270551 0.00228114 -0.00457495 -0.00535547 -0.00892488 -0.00790832 -0.000361894 0.00179917 -0.00150684 0.000371664 0.0078714 0.00411752 0.00834396 0.0010854 0.00318734 0.00874676 0.00905245 0.00876289 0.00338954 0.00657329 0.00189933 0.00381972 0.00521847 -0.000636576 0.00387804 0.00546471 -0.00164551 0.00504234 -0.000716944 -0.000301764 -0.00485655 0.00335851 -0.00416147 -0.00690101 -0.00210946 0.00443195 -0.00110544 -0.000352495 0.00569755 0.00858453 0.00270667 0.00043239 0.00650919 0.00739735 0.00731206 0.00154639 0.00578295 0.00499479 0.00974028 0.00502788 -0.000680986 0.00408332 -0.00274408 0.00234528 -0.000451046 -0.001209 -0.000595059 -0.002543 -0.0025419 -0.00591333 -0.00244695 -0.00238234 -0.00197178 0.00242098 -0.00093306 0.00584416 -0.000898487 0.00301624 0.00748453 0.0027284 0.00992621 0.00268037 0.00546392 0.00938144 0.00835052 0.00166248 0.000136927 0.00501019 0.00477964 0.00023601 -0.00118657 -0.000985667 0.00766598 0.000739663 0.00708719 -0.00124879 0.00173131 -0.00454543 -0.00381898 0.00325149 0.00507312 -0.00331658 0.00658165 -0.000194485 0.00357248 0.000241157 0.0062773 0.0101987 0.00403749 0.00713472 0.00154639 0.00670103 0.00195876 0.00877396 0.00676773 0.00709572 0.000197369 0.00377106 0.00569777 -0.0029262 0.000243811 -0.00322272 -0.00374835 0.00184604 0.00383139 -0.0035994 -0.00276797 0.000202431 -0.00136384 0.00749881 0.00593089 0.00187387 0.00248284 0.00486095 0.00699968 0.00836319 0.00246364 0.0090143 0.000927835 0.0028866 0.00979381 0.00144847 0.00848256 0.00785737 0.0043634 0.00542575 0.00496652 0.00253978 0.00013671 0.00381842 -0.00116887 -0.00135822 -0.000952341 -0.00200859 0.00265696 0.000402957 1.81175e-05 -0.0017202 0.00818685 0.00900124 0.00101893 0.00271378 0.00307979 0.000482094 0.00180592 0.0102331 0.000412371 0.000515464 0.00907216 0.00669217 0.00349984 0.00374713 0.00241059 0.00473539 0.00576642 -0.00136688 0.00100923 0.00403713 0.00353234 0.00517832 0.00407169 0.00257554 0.00410589 0.00787255 0.00642478 0.00699233 0.0072217 0.00985101 0.00412437 0.00903894 0.00979668 0.00355908 0.00784157 0.00123631 0.00865979 0.00783505 0.00639175 0.00628866 0.00153907 0.00432183 0.00961429 0.00473616 0.00217042 0.00670127 0.00771812 0.00779878 0.00305628 0.00212733 0.00146998 0.00386547 0.00712176 0.00746718 0.00615651 0.00616571 0.00433895 0.00118876 0.00763912 0.00823678 0.000707637 0.00407657 0.00855598 0.00113316 0.00979381 0.000309278 0.00762887 0.00536082 0.00319615 0.00797011 0.00127318 0.00239531 0.00130448 0.00517292 0.00577454 -0.000110758 0.00107835 0.00229741 7.4835e-05 0.00329131 0.0100223 0.00787346 0.00253141 0.00654702 0.00457496 0.00576677 0.0050441 0.00168732 0.00298632 0.000206895 0.00298969 0.00680412 0.00340206 0.01 0.00824742 0.00556701 0.00391753 0.000206186 0.00473686 0.00463186 0.00536843 0.000532961 0.00536308 0.00703065 0.00808207 0.00730244 0.00977675 0.00954276 0.00181407 0.000543307 0.000813238 0.000189018 0.00497199 0.0065799 0.00307569 0.0057701 0.00770407 0.00319588 0 0.00587629 0.00505155 0.0057732 0.01 0.00103093 0.00989691 0.00783505 0.00649485 0.0028866 0.00845361 0.00103093 0.0042268 0.00391753 0.00391753 0.00773089 0.00453375 0.00556701 0.00927835 0.0102062 0.00628866 0.00618557 0.00298969 0.00134021 0.00835052 0.00649485 0.00670103 0.00824742 0.00958763 0.000515464 0.00814433 0.00845361 0.000309278 0.00515464 0.00793814 0.000103093 0.000296377 0.00644494 0.00307637 0.00535941 0.00975584 0.000572348 0.00375449 0.00654075 0.00151871 0.00570837 0.00341019 0.00826853 0.00487429 0.00789937 0.00709912 0.00188359 8.15626e-05 0.00298687 0.00319079 0.00742268 0.00979381 0.00618557 0.00329897 0.00721649 0.00814433 0.00639175 0.00762772 0.00494806 0.00269105 0.00882465 0.00342951 0.0022502 0.00732552 0.001898 0.00787954 -4.43312e-06 0.0060825 0.00628422 0.00658267 0.00204287 0.0066035 0.00319955 0.00217492 8.41365e-05 0.00652546 0.00472495 0.00835998 0.00267804 0.00391562 0.00701031 0.00474227 0.00505155 0.00525773 0.00896238 0.00783006 0.0101636 0.00513885 0.00477795 0.00752966 0.000640284 0.00886367 0.00797073 0.00624785 -0.000971464 0.00519266 0.0025404 0.00392283 0.00492722 -0.000535249 -0.000848715 0.000995617 0.00436374 0.00969366 0.00919365 0.00630363 0.0024903 0.00101567 0.00236853 0.00453608 0.00103093 0.00989691 0.00585483 0.00277777 0.00468129 0.0066906 0.00358826 0.00848616 0.00809622 0.00554736 0.00435344 0.00300249 0.007216 0.00387962 0.00756428 0.00685059 0.00653087 0.000480401 0.001164 0.00852486 0.000988877 0.00338828 0.00116831 0.0040817 0.00362287 0.00407991 0.00430509 0.00887219 0.00226804 0.00340206 0.00711575 0.00459858 0.00929915 0.000251256 0.00853687 0.00947456 0.00753699 0.0110885 0.000105399 0.000326452 0.00692963 -0.000459619 -0.00231461 -0.0032057 0.000980551 -0.00512552 -0.000813282 0.00298294 0.0073025 0.00514702 0.00148797 0.00664369 0.000199672 0.0085547 0.00197684 0.00918443 0.00412371 0.00659794 4.63954e-05 0.00849233 0.00452377 0.00582593 0.0064356 0.00416194 0.00914308 0.00241742 0.00126847 0.00343032 -0.000565077 -0.00508016 -0.000978229 -0.00572684 -0.0087738 -0.000827357 -0.00683058 0.00199567 0.0028203 0.00498516 0.00179858 0.0105504 0.00734751 0.00913206 0.00454873 0.00423965 0.00546392 0.00936226 0.00524623 0.00608006 0.00914361 0.00795558 0.00392695 0.00913578 0.00152337 0.00108765 0.00462786 -0.00128806 -0.00739997 -0.00199855 -0.00945476 -0.00777489 -0.0113284 -0.00760919 -0.00472809 -0.000876593 0.00558629 0.00193705 0.00797096 0.00722667 0.00539669 0.00612543 0.0102174 0.00887276 0.00566852 0.00434459 0.0075931 0.00774788 0.0098336 0.00266067 0.004504 0.000829503 -0.00202795 0.0035241 -0.000347192 -0.00718787 -0.00480494 -0.00225592 -0.00929218 -0.00972537 -0.0082395 -0.00614662 -0.000256072 -0.00166349 0.00132321 0.00379837 0.0076506 0.00750078 0.00937823 0.00504403 0.00876517 0.00318842 0.00938625 0.00898426 0.0051108 0.00889884 0.00160701 0.00811658 0.00232469 0.00595663 0.00485668 -0.00206919 -0.0076923 -0.00307709 -0.00502681 -0.00565212 -0.00402252 -0.00808028 -0.00622166 -0.0035847 -0.000695015 -0.000815516 -2.05313e-05 0.00316387 0.00765404 0.00194525 0.00645008 0.00698263 2.24505e-05 0.00998634 0.00949012 0.00587069 0.00819084 0.00141673 0.0054956 0.00144375 0.0041898 0.00465876 0.00381335 -0.00761343 -0.000402685 8.27123e-05 -0.000870118 -0.00522073 0.000775743 0.000386419 0.000363771 -0.00493108 -0.00699891 0.00608098 -0.00366132 0.00106825 0.00882331 0.00372083 0.00228691 0.0100049 0.00632211 0.00370222 0.0101037 0.00651438 0.00871955 0.0100887 0.00680456 0.00958893 -0.000939863 0.00158553 0.00477512 0.00127324 -0.00415364 7.57167e-05 -0.00346042 0.000647749 -0.00275681 -0.00181044 -0.00784523 -0.00575794 -0.00208881 0.00287092 -0.00393909 -0.00259596 0.00320072 0.0035791 0.00524232 0.00866321 0.00524371 0.00741097 0.00515464 0.002509 0.000128674 0.00644575 0.0021231 0.00481308 0.000977269 0.0060329 0.00126304 -0.00670701 0.00181045 0.00374781 0.00185418 0.00118465 -0.00475428 -0.00540008 -0.0105424 -0.00564838 -0.00440796 -0.00273193 0.00405269 -0.00147067 0.00563545 0.000409746 0.00622222 0.00248036 0.00273944 0.00141892 0.00402062 0.00851131 0.00509306 0.00663394 0.00372489 0.0089554 -0.00029517 0.00764032 0.000962593 0.000510889 0.00184304 -0.00377077 0.00193626 -0.00244116 -0.000627255 0.000579598 -0.00237091 -0.0038825 -0.00233957 -0.00568765 0.000424372 0.00695554 